tree
version=v4
num_class=1
num_tree_per_iteration=1
label_index=0
max_feature_idx=99
objective=regression
feature_names=Asymmetric NumPlayableSitesOnBoard NumRows NumCorners NumDirections NumOrthogonalDirections NumOuterSites NumEdges NumTopSites NumRightSites NumCentreSites NumComponentsTypePerPlayer NumStartComponentsHand NumStartComponents PassDecisionFrequency StepDecisionFrequency StepDecisionToEmptyFrequency SlideDecisionToEnemyFrequency HopDecisionEnemyToEmptyFrequency FromToDecisionBetweenContainersFrequency SowFrequency SetNextPlayerFrequency HopCaptureFrequency CaptureSequenceFrequency Line EliminatePiecesEndFrequency ReachEndFrequency ReachWinFrequency NoMovesDraw DrawFrequency DurationActions DurationMoves DurationTurns DurationTurnsStdDev DurationTurnsNotTimeouts DecisionMoves GameTreeComplexity StateTreeComplexity BoardCoverageFull BoardCoverageUsed AdvantageP1 Balance Completion OutcomeUniformity BoardSitesOccupiedAverage BoardSitesOccupiedMaximum BoardSitesOccupiedVariance BoardSitesOccupiedChangeAverage BoardSitesOccupiedChangeSign BoardSitesOccupiedMaxIncrease BoardSitesOccupiedMaxDecrease BranchingFactorAverage BranchingFactorMedian BranchingFactorMaximum BranchingFactorVariance BranchingFactorChangeAverage BranchingFactorChangeSign BranchingFactorChangeLineBestFit BranchingFactorChangeMaxIncrease BranchingFactorChangeMaxDecrease DecisionFactorAverage DecisionFactorMedian DecisionFactorVariance DecisionFactorChangeAverage DecisionFactorChangeSign DecisionFactorMaxIncrease MoveDistanceAverage PieceNumberAverage PieceNumberMaximum PieceNumberVariance PieceNumberChangeAverage PieceNumberMaxDecrease ScoreDifferenceMaxIncrease GreaterThanOrEqual PlayoutsPerSecond MovesPerSecond agent1_selection agent1_exploration agent1_playout agent2_selection agent2_exploration agent2_playout int_AdvantageP1_x_a1_select int_AdvantageP1_x_a1_playout int_AdvantageP1_x_a2_select int_AdvantageP1_x_a2_playout int_agent2_exploration_x_a2_select int_PlayoutsPerSecond_x_a1_select int_PlayoutsPerSecond_x_a1_playout int_PlayoutsPerSecond_x_a2_select int_PlayoutsPerSecond_x_a2_playout int_DurationTurnsNotTimeouts_x_a1_select int_DurationTurnsNotTimeouts_x_a1_playout int_DurationTurnsNotTimeouts_x_a2_select int_DurationTurnsNotTimeouts_x_a2_playout int_GameTreeComplexity_x_a1_select int_GameTreeComplexity_x_a1_playout int_GameTreeComplexity_x_a2_select int_GameTreeComplexity_x_a2_playout int_agent1_exploration_x_a1_select
feature_infos=[0:1] [1:1261] [1:41] [1:45] [0:16] [0:16] [1:120] [4:3906] [1:40] [1:19] [1:12] [0:36] [0:300] [0:320] [0:0.77000000000000002] [0:1] [0:1] [0:0.37] [0:0.91000000000000003] [0:1] [0:1] [0:1] [0:0.91000000000000003] [0:0.34999999999999998] [0:1] [0:1] [0:1] [0:1] [0:1] [0:1] [1:58363.25] [1:10000] [1:2500] [0:1199.8099999999999] [0:1566.47] [0:1] [0:5685.6499999999996] [1.8999999999999999:1730.97] [0:0.80000000000000004] [0.01:1] [0:1] [0:1] [0:1] [-0.040000000000000001:1] [0:1] [0:1] [0:0.13] [-0.27000000000000002:0.14000000000000001] [-1:1] [0:0.72999999999999998] [-1:0] [1:398.72000000000003] [0:462.38] [1:15318] [0:3447732.9300000002] [-119.41:3.1400000000000001] [-1:0.84999999999999998] [-41.649999999999999:3.1699999999999999] [0:606.05999999999995] [-14715.24:0] [0:398.72000000000003] [0:462.38] [0:3453243.3799999999] [-119.59:3.1400000000000001] [-1:0.84999999999999998] [0:606.05999999999995] [0:8.8399999999999999] [1.75:227.62] [2:347.5] [0:11259.549999999999] [-21.190000000000001:15.279999999999999] [-92.849999999999994:0] [0:98179527.219999999] [0:1] [0.33000000000000002:164877.37] [62.590000000000003:2096744.6299999999] [0:3] [0:2] [0:2] [0:3] [0:2] [0:2] [0:3] [0:2] [0:3] [0:2] [0:4.2426406871100006] [0:494632.10999999999] [0:329754.73999999999] [0:494632.10999999999] [0:329754.73999999999] [0:4699.4099999999999] [0:3132.9400000000001] [0:4699.4099999999999] [0:3132.9400000000001] [0:17056.949999999997] [0:11371.299999999999] [0:17056.949999999997] [0:11371.299999999999] [0:4.2426406871100006]
tree_sizes=5835 5950 5919 5939 5958 5976 5960 5969 5926 5982 5928 5954 5944 5965 5992 5995 6011 6013 5955 6010 5990 5999 5966 5992 5996 5994 6002 5993 6017 5998 5990 5999 6024 6029 5998 6001 6050 6019 6017 6008 5992 6011 6015 6004 6030 5965 6027 6018 6008 6016 6014 6034 6007 6051 6025 6032 6039 5999 5994 6026 6018 6036 6042 6012 6009 6015 5995 6011 6030 6021 6066 5991 5972 6019 5970 6021 6007 6014 6060 6034 5988 6024 5979 6015 6008 5997 6018 6026 6017 6014 5985 6016 6016 5969 6015 6005 6010 6057 6044 6026 6021 6054 6051 6068 5956 5985 6002 6028 6091 6042 5949 5948 6020 5980 5955 5999 6019 6038 5884 6014 5988 5956 5893 6004 6008 6027 6003 6006 5987 5973 6052 5997 6012 5990 5969 6011 5931 5969 5879 5884 5976 5881 5926 5908 6023 5849 5939 5891 5872 5959 5955 5936 5957 5856 5960 5908 5896 5977 5948 5889 5965 6018 5937 5957 5990 5921 5922 5839 5960 5933 5910 6045 5921 6015 5925 6017 5996 5825 5880 5999 5947 5884 5981 5868 5855 5807 5921 5966 5904 5944 5953 5924 5987 5937 5887 5875 5995 5873 5863 5922 5908 5813 5866 5821 5839 6046 5997 5970 5861 5958 5902 5829 5953 5908 6000 5853 5795 5851 5870 5794 5805 5903 5902 5839 5832 5928 5915 5916 5909 5985 5894 5881 6003 5976 5862 5832 5918 5837 5856 5879 5880 5922 6012 5940 5880 6003 5889 5921 5953 5814 5932 5878 5917 5874 5919 5951 5899 5920 5882 5839 5863 5851 5975 5907 5876 5859 5850 5926 5909 5849 5872 5849 5851 5867 5884 5775 5900 5835 5966 5861 5966 5896 5871 5898 5929 6032 5842 5901 5907 5854 5883 5933 5921 5886 5882 5886 5860 5786 5856 5826 5819 5799 5827 5830 5896 5895 5911 5883 5887 5866 5867 5954 5911 5922 5920 5938 5929 5907 5892 5889 5837 5916 5847 5886 5875 5869 5842 5883 5875 5835 5983 5922 5892 5961 5897 5861 5909 5843 5922 5900 5851 5863 5890 5836 5884 5825 5840 5870 5774 5877 5906 5764 5787 5918 5768 5768 5932 5909 5808 5784 5903 5884 5952 5870 5893 5883 5929 5854 5951 5844 5899 5870 5803 5968 5871 5876 5855 5856 5867 5908 5889 5823 5927 5920 5952 5886 5918 5949 5884 5920 5899 5839 5944 5864 5949 5932 5941 5947 5914 5991 5863 5900 5894 5896 5880 5900 5936 5943 5891 5782 5861 5946 5998 5912 5862 5859 5766 5851 5874 5872 5970 5919 5791 5845 5937 5951 5889 5886 5911 5978 5865 5869 5829 5916 5883 5948 5948 5844 5900 5842 5920 5942 5935 5933 5924 5934 5925 5911 5863 5937 5858 5841 5832 5866 5907 5915 5939 5964 5880 5836 5904 5881 5901 5882 5856 5898 5834 5837 5824 5815 5988 5895 5916 5974 5926 5932 5934 5903 5918 5860 5863 5897 5893 5925 5918 5897 5920 5861 5907 5840 5874 5919 5954 5847 5840 5820 5870 5835 5885 5994

Tree=0
num_leaves=64
num_cat=0
split_feature=40 40 0 31 67 8 55 40 6 40 37 36 87 86 6 34 31 80 0 75 2 99 2 53 29 75 34 37 34 47 68 0 73 79 2 40 11 0 33 2 48 21 15 17 54 53 77 74 82 82 50 7 7 43 2 52 20 79 5 40 12 52 40
split_gain=5198.76 3154.32 726.204 737.717 635.789 591.385 733.969 366.012 312.375 312.092 340.758 249.519 262.595 284.162 241.469 229.698 211.385 198.694 195.429 175.434 173.408 167.977 146.524 141.832 129.409 126.576 254.654 220.038 424.675 116.773 110.957 111.614 289.019 106.721 107.28 105.712 105.337 102.873 98.2497 113.868 91.3317 87.1361 85.7236 85.5789 82.2662 81.0703 77.0543 132.735 126.287 97.2661 130.001 92.5818 90.8939 73.6732 59.0949 58.0635 47.9906 47.9872 45.7632 44.1825 44.1389 43.045 41.4878
threshold=0.38500000000000006 0.7350000000000001 1.0000000180025095e-35 996.65000000000009 5.9850000000000012 2.5000000000000004 1.0000000180025095e-35 0.97500000000000009 9.5000000000000018 0.60500000000000009 7.8700000000000001 4.3250000000000011 1156.2850000000001 0.15000000000000005 16.500000000000004 1050.7550000000003 1001.8850000000001 1.5000000000000002 1.0000000180025095e-35 35624.080000000009 6.5000000000000009 0.15000000000000005 4.5000000000000009 4.995000000000001 0.27500000000000008 428302.55500000005 881.47000000000014 9.9650000000000016 881.47000000000014 0.055000000000000007 3.4500000000000006 1.0000000180025095e-35 1.0000000180025095e-35 1.0000000180025095e-35 12.500000000000002 0.51500000000000012 1.7500000000000002 1.0000000180025095e-35 395.26500000000004 6.5000000000000009 -0.19499999999999998 0.50500000000000012 0.96500000000000008 0.13500000000000004 2.8600000000000008 11.685 1.0000000180025095e-35 565.56500000000017 0.77500000000000013 1.2250000000000003 -0.054999999999999993 55.500000000000007 55.500000000000007 0.83000000000000007 3.5000000000000004 14.125000000000002 0.57500000000000007 1.0000000180025095e-35 4.0550000000000006 0.54500000000000015 11.500000000000002 13.995000000000003 0.91500000000000015
decision_type=2 2 2 2 2 2 2 2 2 2 2 2 2 2 2 2 2 2 2 2 2 2 2 2 2 2 2 2 2 2 2 2 2 2 2 2 2 2 2 2 2 2 2 2 2 2 2 2 2 2 2 2 2 2 2 2 2 2 2 2 2 2 2
left_child=2 9 4 8 -1 7 15 33 -4 11 54 23 25 17 -5 58 37 55 21 41 57 -15 -17 -2 -18 27 -27 28 35 43 -29 46 -33 62 -35 -13 -21 40 -16 -40 -12 -6 -9 60 -31 59 47 -32 52 50 53 -51 -48 56 -11 -14 -50 -8 -7 -20 -23 -49 -3
right_child=1 5 3 14 19 6 20 42 -10 10 16 12 13 18 38 22 24 -19 45 36 -22 29 -24 -25 -26 26 -28 30 -30 44 31 32 -34 34 -36 -37 -38 -39 39 -41 -42 -43 -44 -45 -46 -47 48 61 49 51 -52 -53 -54 -55 -56 -57 -58 -59 -60 -61 -62 -63 -64
leaf_value=0.080356479736045566 0.045251258752982228 0.020675771984042628 0.052946671396767453 -0.0045532136890979388 0.049597200514120476 0.091035175641614258 0.040343241747677241 0.091873781914788288 -0.0038522963436033661 0.054328790375755776 0.074673912192825515 0.039317923529179594 0.069511363540340806 0.025115293850431059 0.036053165473802481 0.0072059303618716777 0.046619711199193489 0.043751516064649415 0.034897683296585949 0.010294752344735231 0.05832751022748299 0.044582501600652448 0.070085295842066173 0.0011649334202086664 -0.0039453530059428768 0.044547200421984678 0.091866294840614732 -0.0064019039547516046 -0.0040144242641122416 0.041497452021150523 0.042347568330533367 0.045500135123107681 0.09202278050976434 0.00096089077667275979 0.058713867473034906 0.085115983603307882 0.04529148998563326 0.088139750617192009 0.092251282147396946 0.043895882021676082 0.050374246115047421 0.01093048173148034 0.052865346626149522 0.090235031183821424 0.076157832510743761 0.088360682567859811 0.055168405948469362 0.021276078771763858 0.037447775194805882 0.054940709562465773 0.042258548422058957 0.041608203706885366 0.045759000522159241 0.043023644201446394 0.090984929480865742 0.056821985267626475 0.017087344069887718 -0.003385447419839982 0.07971744665430705 0.09270057814127361 0.056323873302350849 0.03789463135388467 0.075928602230154602
leaf_weight=584 291 50 252 230 700 5948 83 335 6141 127 466 378 2972 921 463 126 264 1366 143 1707 326 10144 350 489 243 938 408 109 680 246 10336 1505 429 448 98 189 246 248 245 242 2272 184 243 108 563 391 3851 1085 381 2082 4890 3476 7695 564 819 1294 1204 257 1051 43 869 608 106
leaf_count=584 291 50 252 230 700 5948 83 335 6141 127 466 378 2972 921 463 126 264 1366 143 1707 326 10144 350 489 243 938 408 109 680 246 10336 1505 429 448 98 189 246 248 245 242 2272 184 243 108 563 391 3851 1085 381 2082 4890 3476 7695 564 819 1294 1204 257 1051 43 869 608 106
internal_value=0.0458245 0.0505605 0.0137282 0.00509116 0.0328478 0.0776013 0.0825686 0.0460083 -0.00161339 0.0466464 0.0594441 0.0457097 0.0460758 0.0509212 0.041415 0.0870499 0.0522347 0.060348 0.0469674 0.0230681 0.0322721 0.0456892 0.0534408 0.0176125 0.0223844 0.0438127 0.0588906 0.0432984 0.0226297 0.0472775 0.0439729 0.044117 0.0558198 0.0217474 0.0113268 0.0545839 0.0147029 0.0573031 0.0525442 0.0682225 0.05451 0.0415489 0.075474 0.0459433 0.0656183 0.0754342 0.0434912 0.0402219 0.0451202 0.0416581 0.037754 0.0466025 0.0488974 0.027504 0.0860639 0.0656623 0.0219816 0.0072895 0.0893357 0.0482607 0.045509 0.0272442 0.0582194
internal_weight=85502 74508 10994 7573 3421 9421 8141 1280 6393 65087 4439 60648 59868 19060 1180 7475 3493 5632 13428 2837 666 12851 476 780 507 40808 1346 39462 1247 11930 38215 38106 1934 702 546 567 1953 2986 950 487 2738 884 578 11121 809 577 36172 12029 24143 12597 7039 5558 11546 2149 946 4266 1585 340 6999 186 11013 1693 156
internal_count=85502 74508 10994 7573 3421 9421 8141 1280 6393 65087 4439 60648 59868 19060 1180 7475 3493 5632 13428 2837 666 12851 476 780 507 40808 1346 39462 1247 11930 38215 38106 1934 702 546 567 1953 2986 950 487 2738 884 578 11121 809 577 36172 12029 24143 12597 7039 5558 11546 2149 946 4266 1585 340 6999 186 11013 1693 156
is_linear=0
shrinkage=1


Tree=1
num_leaves=64
num_cat=0
split_feature=40 40 0 31 67 8 15 40 6 40 37 70 31 36 87 86 6 31 80 0 1 56 99 69 29 75 34 37 34 47 68 0 73 79 1 8 0 2 14 1 54 6 48 15 17 54 77 74 76 82 44 51 42 50 45 51 58 14 89 1 61 2 79
split_gain=4691.88 2846.78 655.399 665.789 573.799 533.725 363.38 330.325 281.918 281.663 307.534 261.665 236.6 225.19 236.992 256.456 217.926 190.775 179.322 176.374 173.721 167.929 151.599 127.629 116.791 114.235 229.825 198.584 383.269 105.387 100.138 100.732 260.839 96.3153 96.8205 95.8325 92.8432 92.101 88.6703 102.766 87.5306 99.2549 82.4268 77.3655 77.235 74.2453 69.5415 119.793 113.974 87.7826 121.022 80.5495 70.276 65.58 60.4983 57.5578 55.7444 54.2113 53.7889 53.3331 51.3396 41.2661 39.9358
threshold=0.38500000000000006 0.7350000000000001 1.0000000180025095e-35 996.65000000000009 5.9850000000000012 2.5000000000000004 0.99500000000000011 0.97500000000000009 9.5000000000000018 0.60500000000000009 7.8700000000000001 -0.074999999999999997 23.870000000000001 4.3250000000000011 1156.2850000000001 0.15000000000000005 16.500000000000004 1001.8850000000001 1.5000000000000002 1.0000000180025095e-35 16.500000000000004 1.0000000180025095e-35 0.15000000000000005 12.670000000000002 0.27500000000000008 428302.55500000005 881.47000000000014 9.9650000000000016 881.47000000000014 0.055000000000000007 3.4500000000000006 1.0000000180025095e-35 1.0000000180025095e-35 1.0000000180025095e-35 78.000000000000014 3.5000000000000004 1.0000000180025095e-35 2.5000000000000004 1.0000000180025095e-35 32.500000000000007 90.140000000000015 13.500000000000002 -0.19499999999999998 0.96500000000000008 0.13500000000000004 2.8600000000000008 1.0000000180025095e-35 565.56500000000017 1.5000000000000002 1.2250000000000003 0.54500000000000015 4.9250000000000007 0.17500000000000002 -0.044999999999999991 0.48500000000000004 5.3600000000000003 4.8050000000000006 0.065000000000000016 23015.015000000003 12.500000000000002 15.025 24.500000000000004 1.0000000180025095e-35
decision_type=2 2 2 2 2 2 2 2 2 2 2 2 2 2 2 2 2 2 2 2 2 2 2 2 2 2 2 2 2 2 2 2 2 2 2 2 2 2 2 2 2 2 2 2 2 2 2 2 2 2 2 2 2 2 2 2 2 2 2 2 2 2 2
left_child=2 9 4 8 -1 7 11 33 -4 13 59 -7 62 37 25 18 -5 36 60 22 -8 40 -17 -14 -19 27 -27 28 35 44 -29 46 -33 -3 -35 -15 42 -2 -18 -40 41 -6 -12 -9 -24 -31 47 -32 53 50 -50 -51 -52 -48 -25 56 -21 -23 -39 -11 -16 -44 -13
right_child=1 5 3 16 21 6 20 43 -10 10 17 12 23 14 15 19 38 24 -20 55 -22 57 29 54 -26 26 -28 30 -30 45 31 32 -34 34 -36 -37 -38 58 39 -41 -42 -43 61 -45 -46 -47 48 -49 49 51 52 -53 -54 -55 -56 -57 -58 -59 -60 -61 -62 -63 -64
leaf_value=0.032862883893460391 -0.0012789563268239871 0.011832621071535425 0.0068235656719595672 -0.047801325632178267 -0.0030033561774498022 -0.040880068140547898 -0.038335023690172935 0.043804321751665716 -0.04713545284772596 0.0081365788377469449 0.027464445474129892 0.016610289584187903 0.043089009903738762 -0.0033354331326897247 0.022462636836638322 -0.019616242532742724 -0.0092252648690993016 0.0008129539952444082 -0.001911831789242314 0.044945187711004003 0.024103557860580278 -0.0080587050094941843 -0.00024224543363626476 0.015593161293327832 -0.047223857354847985 -0.0011559314725956302 0.043797207241147468 -0.049557581024432404 -0.047289474533103844 -0.004053192601228754 -0.0032455817876167769 -0.00025064362095439949 0.043945869784324604 -0.042562927532656308 0.012302402681100886 0.044449237557195077 0.040256990164878874 -0.013615252657865102 0.044162945226595113 -0.001774683934136117 -0.010359306911253037 -0.040228631825641799 0.0021567387990435341 0.0067463077370981872 0.042247506665686774 0.028874169798405781 0.008748058880531151 -0.017593753129591518 -0.0038698301648567137 0.0086161098975735054 -0.0026787179786058237 -0.0038368525928857721 -0.025293525808910096 0.00051634032444923734 0.035533317267000174 0.040132375494944951 -0.010322972824731907 0.027984621363585111 -0.048484675071055167 0.042959910576141944 0.010450294672386631 0.024805652229073605 -0.046900325817066241
leaf_weight=584 244 156 252 230 207 105 236 335 6141 127 466 34 5911 428 3002 921 463 264 1366 67 211 720 11013 666 243 938 408 109 680 246 10336 1505 429 448 98 139 248 156 245 242 461 1327 2049 243 108 563 3451 1693 5311 2068 473 3490 1255 8095 887 367 143 122 380 819 1264 223 91
leaf_count=584 244 156 252 230 207 105 236 335 6141 127 466 34 5911 428 3002 921 463 264 1366 67 211 720 11013 666 243 938 408 109 680 246 10336 1505 429 448 98 139 248 156 245 242 461 1327 2049 243 108 563 3451 1693 5311 2068 473 3490 1255 8095 887 367 143 122 380 819 1264 223 91
internal_value=5.74987e-05 0.00455666 -0.030434 -0.0386392 -0.0122704 0.0302455 0.0349644 0.000232135 -0.0450085 0.000838341 0.0129961 0.0375106 0.0385952 -5.1521e-05 0.000296245 0.00489935 -0.00413149 0.00614721 0.0138548 0.00114322 -0.00886178 -0.0215611 -7.10143e-05 0.0397377 -0.0222106 -0.0018537 0.0124703 -0.00234228 -0.0219775 0.00143788 -0.00170156 -0.00156467 0.00955303 -0.0228158 -0.0327153 0.00837897 0.0109622 -0.0267439 0.00644121 0.0213356 -0.029464 -0.0352054 0.00830871 0.0282246 0.000170388 0.0188616 -0.0021591 -0.00526499 -0.000611616 -0.00390058 -0.00760947 0.000796599 -0.0191032 0.00297673 0.026982 0.0281867 0.0073102 -0.00283628 -0.0383361 0.0382849 0.0189034 0.00437976 -0.0296254
internal_weight=85502 74508 10994 7573 3421 9421 8141 1280 6393 65087 4439 7694 7589 60648 59868 19060 1180 3493 5632 13428 447 2837 12851 7464 507 40808 1346 39462 1247 11930 38215 38106 1934 702 546 567 2986 780 950 487 1995 1534 2738 578 11121 809 36172 12029 24143 12597 7039 5558 1728 11546 1553 577 210 842 536 946 4266 2272 125
internal_count=85502 74508 10994 7573 3421 9421 8141 1280 6393 65087 4439 7694 7589 60648 59868 19060 1180 3493 5632 13428 447 2837 12851 7464 507 40808 1346 39462 1247 11930 38215 38106 1934 702 546 567 2986 780 950 487 1995 1534 2738 578 11121 809 36172 12029 24143 12597 7039 5558 1728 11546 1553 577 210 842 536 946 4266 2272 125
is_linear=0
shrinkage=0.05


Tree=2
num_leaves=64
num_cat=0
split_feature=82 82 91 31 84 84 89 74 86 0 16 63 43 33 99 36 61 16 80 43 43 91 0 74 82 82 69 73 0 34 83 33 34 77 36 64 1 47 58 36 36 77 36 42 59 92 8 30 4 74 58 3 34 89 55 36 87 43 33 1 34 33 67
split_gain=1987.59 917.735 1979.54 408.528 319.899 268.404 251.953 215.99 305.594 222.986 213.134 341.077 209.077 236.097 190.839 189.302 187.604 187.481 179.273 177.125 163.332 187.285 154.628 225.49 148.631 143.678 132.424 130.917 128.323 130.318 127.142 122.59 109.186 103.095 99.6422 96.2357 91.9775 90.0558 88.4089 86.8643 82.8952 76.9722 74.8282 74.702 70.8625 66.4036 65.9391 64.3496 62.8197 65.8852 59.091 56.5523 56.1536 54.2081 54.1664 52.2836 62.6466 65.9229 52.1773 92.3224 52.1664 65.8977 52.1269
threshold=1.8250000000000004 0.41500000000000004 90.02000000000001 897.76500000000021 1.8250000000000004 1.3100000000000003 794.2650000000001 496.44000000000005 0.15000000000000005 1.0000000180025095e-35 0.99500000000000011 1.0000000180025095e-35 0.79500000000000015 351.06000000000006 0.15000000000000005 4.7750000000000012 3.7850000000000006 0.56500000000000006 1.5000000000000002 0.95500000000000007 0.025000000000000005 979.72000000000014 1.0000000180025095e-35 366.12000000000006 0.39500000000000007 1.2100000000000002 0.075000000000000025 1.0000000180025095e-35 1.0000000180025095e-35 1017.8200000000001 1.3300000000000003 404.89000000000004 1.4850000000000001 1.5000000000000002 716.78000000000009 -0.044999999999999991 9.5000000000000018 0.055000000000000007 7.3200000000000012 528.4100000000002 62.915000000000013 1.5000000000000002 62.915000000000013 0.99500000000000011 -1.0349999999999999 64.040000000000006 2.5000000000000004 1018.2000000000002 2.5700000000000003 507.00000000000006 32.540000000000013 3.5000000000000004 1017.8200000000001 979.27500000000009 -0.37499999999999994 7.3950000000000005 6798.795000000001 0.27500000000000008 435.00500000000005 13.500000000000002 238.81500000000003 6.7650000000000006 20.800000000000004
decision_type=2 2 2 2 2 2 2 2 2 2 2 2 2 2 2 2 2 2 2 2 2 2 2 2 2 2 2 2 2 2 2 2 2 2 2 2 2 2 2 2 2 2 2 2 2 2 2 2 2 2 2 2 2 2 2 2 2 2 2 2 2 2 2
left_child=1 2 5 24 7 6 30 10 18 14 22 39 13 17 -10 43 -14 -2 62 32 -11 42 45 26 36 48 51 -28 54 46 41 38 -8 55 -15 -19 -4 -17 -5 -12 -7 -1 -22 -16 -39 -3 -30 -27 -23 -50 -38 -24 -42 -37 -6 -34 57 -57 -13 -60 61 -35 -9
right_child=12 4 3 31 28 40 19 8 9 20 11 58 16 34 15 37 -18 35 -20 -21 21 25 23 -25 -26 47 27 -29 29 -31 -32 -33 33 60 -36 53 50 44 -40 -41 52 -43 -44 -45 -46 -47 -48 -49 49 -51 -52 -53 -54 -55 -56 56 -58 -59 59 -61 -62 -63 -64
leaf_value=-0.0026920371642136266 0.019777913174350126 0.00021231953124401754 0.0035864120319383133 -0.018679948702078907 0.02892601620801883 -0.0074062310243872085 0.043366808754702411 0.020301173099170275 -0.017706607204462401 0.039299160551048651 0.0433217380642891 -0.046147255364415884 -0.0078670571993469541 0.038955444484613258 -0.0037643820618189147 0.00032449192357492009 0.038915325870441331 0.013297766037285328 -0.0021218198175587074 -0.040172985037385353 -0.0062798665730621336 0.011217401869256389 -0.0014167287141868944 0.041077543424851287 -0.00040633211116331214 0.033684956597025015 0.0026265934749682071 0.041896382331848142 -0.0066965518116679354 -0.014401136153603193 0.03379851065706211 -0.028992132082259137 -0.039865711023129087 -0.013285313989035786 -0.0055802907591397076 -0.010369608832913782 -0.044535438195117655 0.027430459767659433 0.032133369012201422 -0.0050607891015353491 0.037510092419562054 0.0071066787803985999 0.035874045935119142 -0.043197356910612383 -0.0032037448977500619 -0.0047293153605650722 0.036320048628887651 -0.032707628497684542 0.0034039230442771289 -0.041474264382951029 -0.025242575130822814 -0.047097938949476462 -0.011596788106544409 -0.0435983618276784 -0.0052944746511520971 -0.013026730087770012 0.023481908514916612 -0.041319688626009446 -0.044548941012471921 0.04316386766731739 -0.023118245166156355 0.014479543561512485 0.0098627739442989273
leaf_weight=6054 905 13280 109 119 147 154 96 3710 1655 548 100 765 230 1087 186 12803 3139 215 1593 531 132 110 114 492 226 214 1405 250 96 161 297 208 222 310 142 248 4530 563 305 1283 644 2996 520 339 284 13928 1237 44 107 347 435 167 64 243 542 1769 104 233 80 48 184 688 1765
leaf_count=6054 905 13280 109 119 147 154 96 3710 1655 548 100 765 230 1087 186 12803 3139 215 1593 531 132 110 114 492 226 214 1405 250 96 161 297 208 222 310 142 248 4530 563 305 1283 644 2996 520 339 284 13928 1237 44 107 347 435 167 64 243 542 1769 104 233 80 48 184 688 1765
internal_value=5.46238e-05 -0.00207861 -0.0112552 -0.0355495 0.00107452 -0.00120959 -0.00293879 0.00035304 0.00384117 0.000357212 -0.00237083 -0.0171158 0.0272975 0.0173043 -0.00163996 0.0002359 0.0357215 0.00471258 0.0126408 -0.0132122 0.0159928 0.00732807 -0.00123844 0.0108516 -0.0400806 -0.008545 0.00317025 0.00855859 0.0198575 0.02809 0.00160824 0.00244842 -0.00924207 -0.0106809 0.0338097 -0.0145992 -0.0418477 0.00136908 0.0178721 -0.00156241 0.0258396 0.000551825 0.0273398 -0.0292268 0.0171588 -0.00231734 0.0332221 0.0223622 -0.0226834 -0.0308972 -0.0428451 -0.0285653 0.0330711 -0.0268148 0.00200656 -0.0167869 -0.0143541 -0.0163196 -0.0412035 -0.0116566 0.00134494 0.00585519 0.0169361
internal_weight=85502 79293 20278 5932 59015 14346 13484 56832 24920 17852 31912 2276 6209 2840 15830 14175 3369 1611 7068 4137 2022 1474 29636 2428 5300 822 1936 1655 2183 1494 9347 632 3606 3510 1229 706 5074 13650 424 1383 862 9050 652 525 847 27208 1333 258 564 454 4965 281 708 491 689 2328 2106 2002 893 128 1182 998 5475
internal_count=85502 79293 20278 5932 59015 14346 13484 56832 24920 17852 31912 2276 6209 2840 15830 14175 3369 1611 7068 4137 2022 1474 29636 2428 5300 822 1936 1655 2183 1494 9347 632 3606 3510 1229 706 5074 13650 424 1383 862 9050 652 525 847 27208 1333 258 564 454 4965 281 708 491 689 2328 2106 2002 893 128 1182 998 5475
is_linear=0
shrinkage=0.05


Tree=3
num_leaves=64
num_cat=0
split_feature=40 40 0 31 67 8 55 40 40 37 6 36 87 75 34 14 37 34 34 75 89 86 56 29 1 53 40 1 79 55 68 0 73 94 1 92 37 81 15 40 44 99 12 89 83 35 17 5 0 63 54 91 5 0 1 14 37 81 55 5 94 40 83
split_gain=3884.53 2339 539.108 555.838 493.054 447.874 574.269 282.791 235.08 261.811 233.236 190.38 200.846 237.031 301.659 183.691 177.674 350.343 169.076 164.984 147.405 146.713 139.498 115.783 115.735 112.803 94.7693 86.7393 84.6437 84.1461 83.9175 94.5029 225.154 82.4483 81.323 73.0337 106.644 100.919 66.354 64.3921 82.9582 61.2502 61.1716 58.778 55.6736 52.5388 51.2378 50.677 55.9274 49.826 96.4466 53.4627 47.4995 46.8531 45.4523 44.8175 44.6204 82.4031 40.8385 38.57 38.1477 37.3841 36.8583
threshold=0.38500000000000006 0.7350000000000001 1.0000000180025095e-35 996.65000000000009 5.9850000000000012 2.5000000000000004 1.0000000180025095e-35 0.97500000000000009 0.60500000000000009 7.8700000000000001 9.5000000000000018 4.3250000000000011 2836.7950000000005 428302.55500000005 881.47000000000014 1.0000000180025095e-35 9.9650000000000016 881.47000000000014 1050.7550000000003 484426.47000000003 2059.7850000000003 0.15000000000000005 1.0000000180025095e-35 0.27500000000000008 16.500000000000004 4.995000000000001 0.51500000000000012 32.500000000000007 1.0000000180025095e-35 -0.21499999999999997 3.4500000000000006 1.0000000180025095e-35 1.0000000180025095e-35 1034.1800000000003 78.000000000000014 73.100000000000009 22.935000000000002 1.0000000180025095e-35 0.96500000000000008 0.43500000000000005 0.7350000000000001 0.15000000000000005 11.500000000000002 24029.160000000003 0.52500000000000013 0.97500000000000009 0.13500000000000004 1.9550000000000003 1.0000000180025095e-35 -0.30499999999999994 3.7750000000000004 141.16000000000003 2.6450000000000005 1.0000000180025095e-35 12.500000000000002 0.065000000000000016 123.80500000000002 1.5000000000000002 0.24500000000000002 4.1400000000000015 423.65500000000003 0.91500000000000015 0.57500000000000007
decision_type=2 2 2 2 2 2 2 2 2 2 2 2 2 2 2 2 2 2 2 2 2 2 2 2 2 2 2 2 2 2 2 2 2 2 2 2 2 2 2 2 2 2 2 2 2 2 2 2 2 2 2 2 2 2 2 2 2 2 2 2 2 2 2
left_child=2 8 4 10 -1 7 18 28 11 54 -4 25 13 16 -15 33 17 26 59 47 -8 -14 29 -21 -20 -2 -13 -17 61 43 -18 35 -33 -5 -30 39 37 45 -9 40 -32 -23 -38 -6 -39 -37 49 -11 -49 50 -43 -51 -52 -54 -10 -24 57 -44 -41 -7 -61 -3 -59
right_child=1 5 3 15 22 6 20 38 9 19 -12 12 21 14 -16 27 30 -19 24 23 -22 41 55 -25 -26 -27 -28 -29 34 -31 31 32 -34 -35 -36 36 42 44 -40 58 -42 46 56 -45 -46 -47 -48 48 -50 51 52 -53 53 -55 -56 -57 -58 62 -60 60 -62 -63 -64
leaf_value=0.030618414732193806 6.8170451031056883e-05 -0.024545105442171918 0.0061910948863528794 -0.035343261416762688 0.0010748168054250115 0.039132660094755425 0.0047480709950650209 0.040265976720447863 0.0073836145775876653 0.043890168544437204 -0.042888464302475483 -0.0059880141262955815 0.015722243051727532 -0.00084668956767257981 0.041350201662215924 0.040900427399545303 -0.044987219271309886 -0.043646251980534845 -0.03420840200805475 -0.0012046241394478541 -0.044383401398543069 -0.014774416183603084 -0.0075132688337766415 -0.044153310473502419 0.021675485868605654 -0.039248533866507271 0.034480450299243182 -0.001303381678909987 -0.039693369543861733 -0.032528249776593708 -0.0058439378673484999 0.0003731414663570179 0.04022220122646096 -0.00057573470658939274 0.010589600593916008 0.00089565148132283296 -0.0035591713960617085 -0.018470684319285544 0.0059464044039187489 0.00093825652908975069 -0.048605366423726086 0.032590360999770536 0.01962564276003189 -0.044959127313868946 0.0014682736948264138 -0.03330174717738129 0.039822234213352209 0.0065981364088568417 0.027049963884627271 -0.0062174056167906729 0.02680068632703176 0.0059783913692171798 0.0012594662117267844 0.033431118332287846 0.039531313431459471 0.025258804436345574 -0.0021199414944272576 -0.024561283096866032 0.022167664924107787 0.035371051432654982 0.013912366311832472 0.027903989799988441 0.0044535987847252592
leaf_weight=584 291 50 252 390 358 6068 429 335 127 112 6141 470 3104 994 738 245 109 717 126 443 237 468 720 243 350 489 209 242 448 1551 1613 1534 461 303 98 134 16353 560 243 21040 122 356 911 86 934 694 98 2304 391 1936 226 1677 2310 119 819 122 1279 172 229 620 311 106 301
leaf_count=584 291 50 252 390 358 6068 429 335 127 112 6141 470 3104 994 738 245 109 717 126 443 237 468 720 243 350 489 209 242 448 1551 1613 1534 461 303 98 134 16353 560 243 21040 122 356 911 86 934 694 98 2304 391 1936 226 1677 2310 119 819 122 1279 172 229 620 311 106 301
internal_value=5.18926e-05 0.0041457 -0.0276925 -0.0351342 -0.0112189 0.027431 0.0317538 -6.26583e-05 0.00077527 0.0118822 -0.0409538 -3.76813e-05 0.000282077 -0.00103761 0.0171333 -0.00360435 -0.00169544 -0.019271 0.0357177 0.00556297 -0.0127357 0.00663743 -0.0198312 -0.0164182 0.00688269 -0.0245804 0.00646841 0.0199285 -0.0213879 -0.0270341 -0.00116718 -0.0010641 0.00958137 -0.0201419 -0.0306682 -0.00154305 -0.00364998 -0.0137656 0.0258375 0.000411284 -0.00885079 0.00271541 -0.00241479 -0.00784167 -0.0060055 -0.0277674 0.00393309 0.0109349 0.00956536 0.00340212 0.00815237 -0.000556639 0.00487557 0.0028356 0.0352155 -0.00276482 0.00461267 0.0108345 0.00116683 0.0376788 0.0282028 0.0110934 -0.00609727
internal_weight=85502 74508 10994 7573 3421 9421 8141 1280 65087 4439 6393 60648 59868 49574 1732 1180 47842 1396 7475 3493 666 10294 2837 686 476 780 679 487 702 1995 46446 46337 1995 693 546 44342 21338 2322 578 23004 1735 7190 19016 444 1494 828 6722 2807 2695 6624 3011 3613 2655 2429 946 842 2663 1384 21269 6999 931 156 473
internal_count=85502 74508 10994 7573 3421 9421 8141 1280 65087 4439 6393 60648 59868 49574 1732 1180 47842 1396 7475 3493 666 10294 2837 686 476 780 679 487 702 1995 46446 46337 1995 693 546 44342 21338 2322 578 23004 1735 7190 19016 444 1494 828 6722 2807 2695 6624 3011 3613 2655 2429 946 842 2663 1384 21269 6999 931 156 473
is_linear=0
shrinkage=0.05


Tree=4
num_leaves=64
num_cat=0
split_feature=82 85 94 34 85 82 91 29 29 8 81 85 69 85 70 29 70 75 53 29 14 1 16 1 37 74 53 29 82 50 87 84 87 89 34 34 80 84 74 64 18 88 76 76 20 36 29 30 83 92 22 88 62 33 55 74 89 54 1 9 37 33 62
split_gain=1627.33 865.982 1237.66 418.154 313.28 221.301 635.725 184.917 207.615 166.009 163.587 277.64 137.989 130.509 117.666 117.16 116.244 105.232 141.25 97.6937 93.5616 89.4938 84.4381 83.8834 83.3078 182.207 100.858 99.1252 83.182 79.3716 76.6965 76.3076 84.6755 74.7482 73.003 70.5632 67.6733 102.314 80.983 63.5403 84.3699 73.3763 67.8969 66.9631 64.2495 62.9162 59.2839 56.9231 54.292 90.0313 53.9611 56.6268 52.5107 54.2534 52.4785 56.7803 52.097 51.7085 51.0904 49.8432 49.1355 52.1916 48.3883
threshold=1.8250000000000004 0.39500000000000007 87.445000000000007 988.60500000000013 1.4900000000000002 0.40500000000000008 90.02000000000001 0.38000000000000006 0.025000000000000005 2.5000000000000004 1.5000000000000002 0.60500000000000009 33.500000000000007 0.77500000000000013 0.015000000000000001 0.36500000000000005 -0.064999999999999988 160217.75000000003 11.685 0.38000000000000006 1.0000000180025095e-35 58.000000000000007 0.79500000000000015 34.000000000000007 9.9650000000000016 501.09000000000009 10.875000000000002 0.31500000000000006 1.9450000000000001 -0.074999999999999997 3132.8000000000006 1.3300000000000003 17735.705000000005 23015.015000000003 903.40500000000009 1143.9700000000003 1.0000000180025095e-35 0.71500000000000008 471.14000000000004 -0.014999999999999998 0.065000000000000016 310.78500000000003 2.5000000000000004 1.5000000000000002 0.57500000000000007 709.43000000000006 0.025000000000000005 12.795000000000002 0.41500000000000004 83.800000000000011 0.075000000000000025 251.17000000000004 5.7150000000000007 467.16500000000002 -0.014999999999999998 407.94500000000005 51405.080000000009 3.1050000000000004 9.5000000000000018 3.5000000000000004 19.780000000000005 788.87000000000012 2.9650000000000003
decision_type=2 2 2 2 2 2 2 2 2 2 2 2 2 2 2 2 2 2 2 2 2 2 2 2 2 2 2 2 2 2 2 2 2 2 2 2 2 2 2 2 2 2 2 2 2 2 2 2 2 2 2 2 2 2 2 2 2 2 2 2 2 2 2
left_child=1 2 5 12 10 6 16 8 28 23 11 17 58 15 24 20 22 -3 34 46 -12 60 -1 -9 25 26 54 -27 -2 -21 35 32 48 39 47 -6 37 38 -15 42 -41 -42 43 -26 -45 59 -13 -19 49 -18 -38 -52 53 -29 -7 -56 -30 -48 -4 -8 -16 -62 -10
right_child=7 4 3 -5 30 14 45 9 62 -11 13 19 -14 36 21 -17 31 18 -20 29 -22 -23 -24 -25 33 27 -28 52 56 -31 -32 -33 -34 -35 -36 -37 50 -39 -40 40 41 -43 -44 44 -46 -47 57 -49 -50 -51 51 -53 -54 -55 55 -57 -58 -59 -60 -61 61 -63 -64
leaf_value=-0.0050283859042281288 0.0018602081649678659 0.00051671050582824157 0.0014358538354421596 0.02178946559430461 0.031295126972181106 0.034823499452800326 -0.0057020080992869577 -0.02977828152575775 0.0031717924511537061 0.035845036811779363 -0.014242474913542228 0.017839022874242726 -0.00094287877343932471 0.0031155789616089959 -0.00012599390453126093 -0.032612171701735942 -0.0031617536855971908 -0.025277861207723618 0.014376903554354696 -0.0081866884138435125 0.023471620963359981 -0.0023203932937151516 -0.029120494759060919 0.036696642403072424 0.002696321911529063 0.0025694834342195306 -0.043152651030184896 0.033493215689223366 0.027838287835177829 0.034023380268116903 -0.010262839196590134 0.027623876463112009 0.032209777112156911 -0.034619147033879048 -0.039136901821586349 -0.012086906686936976 -0.0012521575595368722 -0.0017635291832716544 0.018951186878971151 -0.005677103408578109 -0.0064542281817105158 -0.032000684737653128 0.0054935795333286644 -0.0030440144219120472 -0.019609111291996616 -0.0064476853129507477 0.013465080486344439 0.0033306875166148123 0.0041584031785051366 -0.035730910666404277 0.00036593415499466689 -0.020369963515220229 -0.044344051678975427 -0.04461222420568052 0.0048253355419470212 -0.036481775377284399 -0.02545708039616968 -0.023838779033276941 -0.038176272256488564 -0.039964665510399004 0.015840443663980842 -0.0072999082123621911 -0.025762065255105705
leaf_weight=978 415 14100 83 346 1303 78 113 152 289 3068 577 792 276 1794 921 604 1289 195 3669 123 230 2745 579 69 1537 779 232 667 1880 1178 143 274 196 216 126 101 12955 3892 1468 4447 497 647 2248 1263 1091 174 175 1605 1863 254 564 791 24 23 225 132 47 198 4222 1750 2268 273 289
leaf_count=978 415 14100 83 346 1303 78 113 152 289 3068 577 792 276 1794 921 604 1289 195 3669 123 230 2745 579 69 1537 779 232 667 1880 1178 143 274 196 216 126 101 12955 3892 1468 4447 497 647 2248 1263 1091 174 175 1605 1863 254 564 791 24 23 225 132 47 198 4222 1750 2268 273 289
internal_value=4.9298e-05 -0.00188095 -0.00811658 -0.0312121 0.00249763 -0.00402085 -0.0113795 0.0246998 0.0155421 0.0328301 0.00173768 0.0047993 -0.0352153 -0.00122838 -0.00131474 -0.0159583 -0.0024481 0.00281898 0.00862094 0.0206153 -0.00349372 0.00442206 -0.0139875 -0.00902367 -0.00383909 0.00519731 -0.0165293 0.0149037 0.0221655 0.0300327 0.0246213 0.00218731 0.000252379 -0.00547299 -0.00234407 0.0281743 -0.00026006 0.00371066 0.0102421 -0.00493628 -0.00879239 -0.0209023 -0.00142439 -0.0054212 -0.0107214 -0.035201 0.0100986 0.000231428 -0.00158663 -0.00852311 -0.00224514 -0.0117389 0.0283608 0.0308897 -0.00233025 -0.0104479 0.0265384 -0.00633697 -0.0374126 -0.0378865 0.00976811 0.0133543 -0.0112951
internal_weight=85502 79293 32710 4927 46583 27783 7470 6209 2920 3289 45036 22161 4581 22875 20313 1411 5433 19695 5595 2466 807 6207 1557 221 14106 2160 667 1493 2342 1301 1547 3876 3602 11946 1926 1404 21464 7154 3262 11730 5591 1144 6139 3891 2354 2037 1165 1800 3406 1543 14310 1355 714 690 435 357 1927 373 4305 1863 3462 2541 578
internal_count=85502 79293 32710 4927 46583 27783 7470 6209 2920 3289 45036 22161 4581 22875 20313 1411 5433 19695 5595 2466 807 6207 1557 221 14106 2160 667 1493 2342 1301 1547 3876 3602 11946 1926 1404 21464 7154 3262 11730 5591 1144 6139 3891 2354 2037 1165 1800 3406 1543 14310 1355 714 690 435 357 1927 373 4305 1863 3462 2541 578
is_linear=0
shrinkage=0.05


Tree=5
num_leaves=64
num_cat=0
split_feature=40 40 31 31 13 36 7 5 40 69 40 37 31 36 87 75 73 16 63 1 75 75 87 21 79 53 58 58 13 82 1 47 90 22 64 21 12 12 6 33 88 4 80 80 79 75 67 73 81 33 80 97 79 74 41 91 3 79 49 79 52 54 1
split_gain=3183.76 1917 366.146 451.681 435.311 366.088 374.447 282.729 248.651 211.347 204.531 223.19 198.561 165.006 167.387 185.317 235.972 156.549 239.018 146.286 144.187 115.49 114.959 113.78 111.142 105.657 97.0133 93.2992 92.4536 89.5894 72.5756 72.163 69.1136 113.586 83.5483 75.3712 68.5266 67.0773 68.3156 65.8986 64.9511 62.523 57.1637 52.9176 54.2207 51.7568 71.6502 122.082 55.9236 50.4914 46.2677 73.1297 69.6841 87.0494 46.0531 44.0246 43.1709 43.0786 80.8031 92.9429 74.3848 42.8874 42.8213
threshold=0.38500000000000006 0.74500000000000011 996.65000000000009 133.67500000000004 12.500000000000002 62.915000000000013 21.500000000000004 4.1400000000000015 0.97500000000000009 58.465000000000011 0.60500000000000009 7.8700000000000001 1920.9300000000001 4.3250000000000011 3321.1800000000003 428302.55500000005 1.0000000180025095e-35 0.99500000000000011 1.0000000180025095e-35 78.000000000000014 484426.47000000003 380361.92500000005 6798.795000000001 0.055000000000000007 1.0000000180025095e-35 4.995000000000001 7.4050000000000011 7.3200000000000012 3.5000000000000004 0.97500000000000009 32.500000000000007 0.055000000000000007 26.035000000000004 1.0000000180025095e-35 -1.0000000180025095e-35 0.83500000000000008 31.000000000000004 3.5000000000000004 25.500000000000004 699.78500000000008 222.18000000000004 2.6900000000000004 1.5000000000000002 1.0000000180025095e-35 1.5000000000000002 211033.90500000003 3.3750000000000004 1.0000000180025095e-35 1.5000000000000002 127.88500000000001 1.0000000180025095e-35 96.415000000000006 1.5000000000000002 220.61000000000004 0.81500000000000006 211.00000000000003 33.500000000000007 2.5000000000000004 0.12500000000000003 1.5000000000000002 6.7300000000000013 79.15000000000002 12.500000000000002
decision_type=2 2 2 2 2 2 2 2 2 2 2 2 2 2 2 2 2 2 2 2 2 2 2 2 2 2 2 2 2 2 2 2 2 2 2 2 2 2 2 2 2 2 2 2 2 2 2 2 2 2 2 2 2 2 2 2 2 2 2 2 2 2 2
left_child=2 10 3 4 22 6 24 36 19 61 13 62 27 25 15 17 -17 32 28 -9 56 -8 -1 -6 42 -2 -22 -4 -19 -16 -29 43 33 37 -35 45 -7 55 39 -39 -36 -26 -3 44 -31 50 -47 48 -48 -10 52 -52 53 -34 -30 -15 -13 58 -53 -60 -59 -5 -12
right_child=1 5 12 9 23 7 21 8 49 -11 11 20 -14 14 29 16 -18 18 -20 -21 26 -23 -24 -25 41 -27 -28 30 54 31 -32 -33 35 34 40 -37 -38 38 -40 -41 -42 -43 -44 -45 -46 46 47 -49 -50 -51 51 57 -54 -55 -56 -57 -58 60 59 -61 -62 -63 -64
leaf_value=-0.00056766476313685498 0.00023058406062007541 0.034430655311970482 -0.007091412454758677 -0.038515599225519392 -0.03636786279915525 0.035559932989237875 0.037721607923878304 -0.036232935395476389 0.035188286425702597 0.01038972102299643 0.0050907370723683523 0.0087928863372020629 -0.034253476517610688 -0.0011010675797583883 -0.0010453318860820595 -0.00022039744541980325 0.037646398454530161 0.039588175461453906 -0.040379276669069597 0.01569989862577759 -0.0015985206094863891 -0.0037977004752672732 0.033769555959766835 -0.011573650791791543 0.00017261233735120014 -0.037426406021855325 -0.041202959836028119 0.036735241925343873 -0.037247379676364691 0.023030628591381986 0.00068274219509300584 0.025335606811255386 -0.00095782171986158687 -0.0014883325995575128 -0.0083373129079582324 0.039152216641452374 -0.0014259759835113075 0.017807832163844933 -0.0026066504823815369 -0.0098502773621576365 -0.030783662691947773 -0.042730608889581384 -0.029267374405479236 0.0044389163664823698 0.0062120780820382367 -0.039674526136368515 0.011402162612773901 0.030860050518276328 -0.0043863862277347633 0.014174113939734924 -0.0058641171362106767 0.00070223845563932184 -0.0012857510090922186 0.014547791890292185 -0.0034439246639138667 -0.0067756588275454379 0.040705236169424924 -0.012609687885564809 -0.0076296791980666294 0.023417774794726679 0.0022052349183593798 -0.022676153122751123 0.036609150225495782
leaf_weight=539 304 105 472 6022 1107 5798 583 339 594 240 124 2898 344 9318 2717 1000 699 118 642 226 438 235 445 795 105 481 239 360 113 967 228 670 1573 830 542 127 128 1189 1427 263 795 444 53 3655 950 80 1104 493 1140 551 6455 5314 4519 2132 930 5398 110 1371 331 887 2218 460 823
leaf_count=539 304 105 472 6022 1107 5798 583 339 594 240 124 2898 344 9318 2717 1000 699 118 642 226 438 235 445 795 105 481 239 360 113 967 228 670 1573 830 542 127 128 1189 1427 263 795 444 53 3655 950 80 1104 493 1140 551 6455 5314 4519 2132 930 5398 110 1371 331 887 2218 460 823
internal_value=-1.83513e-06 0.00370528 -0.0250969 -0.0285821 -0.012037 0.0251261 0.00276001 0.0295928 0.0116825 -0.0356856 0.000703998 0.0108317 -0.00124643 -6.81796e-05 0.000229959 -0.000877138 0.0153587 -0.00143656 -0.0158979 -0.0154598 0.00526776 0.0257937 0.0149609 -0.0260044 -0.02389 -0.0228433 -0.01558 0.00946529 -0.00236038 0.00653321 0.0227557 0.00983197 -0.000887711 -0.00314739 -0.0139488 0.000721853 0.034761 -0.00181708 0.00516263 0.0127981 -0.0216842 -0.0345251 0.0130636 0.00796776 0.0146959 0.000545127 0.00696754 0.00833084 0.00338124 0.0250758 -0.000184386 -0.00170558 0.00288168 0.00796471 -0.00710624 -0.00318257 0.00995989 0.000946662 0.00336464 0.0149804 -0.00345407 -0.0373915 0.0324821
internal_weight=85557 74545 11012 9608 2886 9161 1525 7636 1710 6722 65384 4632 1404 60752 59967 51008 1699 49309 1803 565 3685 818 984 1902 707 785 677 1060 1161 8959 588 6242 47506 19762 2167 27744 5926 17595 2879 1452 1337 549 158 5572 1917 27617 2817 2737 2244 1145 24800 16576 8224 3705 1043 14716 3008 10121 6532 1218 3589 6482 947
internal_count=85557 74545 11012 9608 2886 9161 1525 7636 1710 6722 65384 4632 1404 60752 59967 51008 1699 49309 1803 565 3685 818 984 1902 707 785 677 1060 1161 8959 588 6242 47506 19762 2167 27744 5926 17595 2879 1452 1337 549 158 5572 1917 27617 2817 2737 2244 1145 24800 16576 8224 3705 1043 14716 3008 10121 6532 1218 3589 6482 947
is_linear=0
shrinkage=0.05


Tree=6
num_leaves=64
num_cat=0
split_feature=40 40 0 31 67 36 7 5 43 40 37 34 29 0 9 34 34 48 36 9 42 56 75 86 37 37 44 54 0 19 19 2 92 33 12 1 83 37 37 94 0 43 66 36 80 84 36 29 1 48 12 4 51 33 48 56 99 19 99 84 79 49 52
split_gain=2873.34 1730.09 398.13 428.105 382.421 330.395 337.938 255.163 285.016 187.273 481.291 173.283 187.281 173.074 172.307 160.634 232.045 152.417 148.894 145.61 117.109 113.429 104.229 101.272 90.1548 84.7244 144.225 73.543 71.7898 71.2357 69.7149 66.6315 66.1243 62.8248 61.8452 59.6013 59.0059 73.419 58.6031 58.4358 57.6699 53.9982 63.3581 58.3508 53.5069 65.6792 79.3193 45.3342 42.33 42.0396 40.9207 40.6062 38.9496 38.6952 38.3254 36.4815 37.9363 34.9895 34.2868 33.556 72.3543 129.513 38.9868
threshold=0.38500000000000006 0.74500000000000011 1.0000000180025095e-35 996.65000000000009 5.9850000000000012 62.915000000000013 21.500000000000004 4.1400000000000015 0.74500000000000011 0.51500000000000012 7.8700000000000001 903.40500000000009 0.27500000000000008 1.0000000180025095e-35 3.5000000000000004 941.95000000000016 1009.2550000000001 -0.81499999999999984 4.7750000000000012 2.5000000000000004 0.99500000000000011 1.0000000180025095e-35 380361.92500000005 0.15000000000000005 5.4900000000000011 6.7200000000000006 0.43500000000000005 90.140000000000015 1.0000000180025095e-35 0.42500000000000004 0.12500000000000003 2.5000000000000004 21.100000000000005 395.26500000000004 31.000000000000004 32.500000000000007 0.81500000000000006 13.080000000000002 21.110000000000003 76.600000000000009 1.0000000180025095e-35 1.0000000180025095e-35 1.1150000000000004 152.35000000000002 1.0000000180025095e-35 0.70500000000000007 218.77000000000001 0.50500000000000012 216.50000000000003 -0.064999999999999988 2.5000000000000004 2.6900000000000004 3.7350000000000008 127.88500000000001 -0.22499999999999998 -0.074999999999999997 0.15000000000000005 0.13500000000000004 0.15000000000000005 0.58500000000000008 2.5000000000000004 0.12500000000000003 15.06
decision_type=2 2 2 2 2 2 2 2 2 2 2 2 2 2 2 2 2 2 2 2 2 2 2 2 2 2 2 2 2 2 2 2 2 2 2 2 2 2 2 2 2 2 2 2 2 2 2 2 2 2 2 2 2 2 2 2 2 2 2 2 2 2 2
left_child=2 9 4 14 -1 6 23 34 28 15 24 13 -13 17 -4 18 -17 -12 31 -5 -15 27 -8 -3 -11 26 -20 49 -9 44 32 -2 38 -21 -7 -35 37 -34 39 -27 -14 42 43 58 45 46 -19 50 -22 54 -38 -25 -47 -10 -6 56 -31 -23 -32 -46 61 -61 -62
right_child=1 5 3 19 21 7 22 8 53 10 11 12 40 20 -16 16 -18 29 25 33 48 57 -24 51 -26 30 -28 -29 -30 55 41 -33 36 35 -36 -37 47 -39 -40 -41 -42 -43 -44 -45 59 52 -48 -49 -50 -51 -52 -53 -54 -55 -56 -57 -58 -59 -60 60 62 -63 -64
leaf_value=0.026718800987328341 -0.0015125135138840983 0.0064166349653775497 0.004780123313138776 -0.038587295753260455 -0.031008878516848849 0.033781935789840178 0.035835528073195004 0.01114862395514702 0.031156645425256681 0.0068128817506255537 0.042010342760428095 7.1231318382030751e-05 -0.0012579839853646836 0.002399806956774349 -0.03700771745449806 0.033366378522088028 -0.0015220979911566342 0.015372309005808394 -0.035463689134828745 -0.0067368418009857009 0.034460182146483213 -0.0060289648023757999 -0.0036078152114010242 -0.0052086471675104034 0.035088986765671605 0.0023571275455023192 -0.001635907928895494 -0.0065213746590524029 -0.034421288839625169 -0.0009658558241127037 0.0063887706347632621 -0.03555508549664007 -0.023542461942557932 0.036169026205126124 -0.0013546771206165431 0.00064860496911518448 0.00013473559366228139 -0.0057547447083649041 -0.00095698381462664274 0.020228162523617116 -0.039140252832549849 -0.00085215834003300728 -0.0013491128205806449 0.0030257270882825785 -0.0038325394678863176 0.0087083925627710525 -0.0023358758665907088 -0.0062424479606823392 0.001440212739292871 -0.036415468978627429 0.015729872134022001 -0.041853455885654631 -0.002936255244452179 0.013465408300820353 -0.0071960009343590772 0.0030816931403223466 0.026781551306692415 0.023255581680309625 0.030388801840044416 0.00097601707151648428 -0.0085817019519945931 0.021484059438810901 0.0031053684554335011
leaf_weight=595 205 210 257 225 358 5798 583 116 704 354 237 1120 121 609 6146 788 1206 2121 500 472 825 714 235 93 1384 1385 852 472 339 158 193 481 622 245 128 228 5286 8613 10393 683 592 2185 733 478 5518 977 901 2959 110 861 457 404 2710 551 320 501 559 119 650 3776 2092 967 1083
leaf_count=595 205 210 257 225 358 5798 583 116 704 354 237 1120 121 609 6146 788 1206 2121 500 472 825 714 235 93 1384 1385 852 472 339 158 193 481 622 245 128 228 5286 8613 10393 683 592 2185 733 478 5518 977 901 2959 110 861 457 404 2710 551 320 501 559 119 650 3776 2092 967 1083
internal_value=-1.74342e-06 0.00352002 -0.0238421 -0.0302487 -0.00973402 0.0238698 0.00262201 0.0281132 0.0110983 0.000668799 0.0038882 0.00211788 -0.0126806 0.00328992 -0.0353305 -0.00155537 0.0122653 0.0021339 -0.00230679 -0.00243815 0.0194621 -0.0173604 0.024504 -0.0226955 0.0293296 -0.00186695 -0.0141462 -0.023787 -0.0228035 0.00169152 -0.00138765 -0.025382 -0.00222532 0.00616879 0.033023 0.0190471 -0.00416902 -0.00695279 0.000572548 0.00825941 -0.0327114 0.00461929 0.0104397 0.0169811 0.000981567 0.00462824 0.0100927 -0.00121474 0.0305755 -0.0290823 0.00137572 -0.0349964 0.000149403 0.0233894 -0.0197698 0.0134337 0.0206671 -0.00184546 0.0248941 -0.00083933 0.00124662 0.00515718 -0.00459521
internal_weight=85557 74545 11012 7573 3439 9161 1525 7636 1710 65384 26715 24977 1833 23144 6403 38669 1994 21600 36675 1170 1544 2844 818 707 1738 35989 1352 2011 455 21363 34637 686 30398 945 5926 473 17937 9235 12461 2068 713 4239 2054 1321 20145 6709 3022 8702 935 1539 5743 497 3687 1255 678 1218 717 833 843 13436 7918 4743 3175
internal_count=85557 74545 11012 7573 3439 9161 1525 7636 1710 65384 26715 24977 1833 23144 6403 38669 1994 21600 36675 1170 1544 2844 818 707 1738 35989 1352 2011 455 21363 34637 686 30398 945 5926 473 17937 9235 12461 2068 713 4239 2054 1321 20145 6709 3022 8702 935 1539 5743 497 3687 1255 678 1218 717 833 843 13436 7918 4743 3175
is_linear=0
shrinkage=0.05


Tree=7
num_leaves=64
num_cat=0
split_feature=40 40 0 31 68 8 55 40 40 37 6 36 14 75 59 75 80 36 84 75 69 1 4 29 1 2 36 1 70 2 84 18 84 84 53 49 84 99 4 1 15 19 14 49 42 52 78 64 83 81 35 32 83 99 37 35 15 1 59 40 36 12 36
split_gain=2593.19 1561.4 359.312 386.365 349.025 318.766 434.022 205.481 171.731 205.499 155.507 144.342 132.313 117.752 144.558 107.128 95.7153 132.892 186.127 92.307 91.5454 91.2048 90.5433 90.5143 77.4638 79.6255 77.1998 85.2193 77.141 72.6789 65.1133 59.6803 70.1327 77.3066 87.8213 62.7709 131.517 58.5042 55.7995 53.7902 53.4944 52.2665 52.0315 51.0436 60.0309 43.0434 42.7983 62.4915 51.5259 44.0114 43.2343 42.7404 41.3678 39.6135 39.0846 66.6628 39.065 35.0829 33.4024 32.2917 31.8093 38.0931 36.6856
threshold=0.38500000000000006 0.74500000000000011 1.0000000180025095e-35 996.65000000000009 5.9750000000000005 2.5000000000000004 1.0000000180025095e-35 0.97500000000000009 0.57500000000000007 7.8700000000000001 9.5000000000000018 4.3250000000000011 1.0000000180025095e-35 356724.34000000003 -8.6249999999999982 365007.85500000004 1.0000000180025095e-35 157.52000000000001 0.77500000000000013 484426.47000000003 97.065000000000012 30.500000000000004 3.7550000000000003 0.27500000000000008 15.500000000000002 7.5000000000000009 890.1450000000001 22.000000000000004 -0.72999999999999987 2.5000000000000004 0.75500000000000012 0.075000000000000025 0.48500000000000004 1.1650000000000003 16.960000000000004 0.025000000000000005 0.81500000000000006 0.15000000000000005 4.0850000000000009 32.500000000000007 0.96500000000000008 0.52000000000000013 0.025000000000000005 0.12500000000000003 0.77500000000000013 4.9850000000000012 1.0000000180025095e-35 -0.014999999999999998 0.52500000000000013 1.0000000180025095e-35 0.97500000000000009 20.555000000000003 0.97500000000000009 0.15000000000000005 9.9650000000000016 0.9850000000000001 0.095000000000000015 12.500000000000002 -11.469999999999999 0.91500000000000015 521.59000000000015 5.5000000000000009 498.57500000000005
decision_type=2 2 2 2 2 2 2 2 2 2 2 2 2 2 2 2 2 2 2 2 2 2 2 2 2 2 2 2 2 2 2 2 2 2 2 2 2 2 2 2 2 2 2 2 2 2 2 2 2 2 2 2 2 2 2 2 2 2 2 2 2 2 2
left_child=2 8 4 10 -1 7 26 30 11 57 -4 29 38 16 22 -16 17 18 56 28 24 -8 -15 -21 -6 -26 -7 -28 -11 -2 59 32 51 35 -35 -34 45 -33 -5 -14 -9 58 -32 -38 -45 -37 47 -39 50 -49 -48 -18 60 -20 55 -19 -13 -10 -30 -3 62 -62 -17
right_child=1 5 3 12 20 6 21 40 9 19 -12 13 39 14 15 52 31 54 53 23 -22 -23 -24 -25 25 -27 27 -29 41 -31 42 37 33 34 -36 36 43 46 -40 -41 -42 -43 -44 44 -46 -47 48 49 -50 -51 -52 -53 -54 -55 -56 -57 -58 -59 -60 -61 61 -63 -64
leaf_value=0.030494214449187415 -0.00088353089150312078 -0.024010374502319357 0.0045411174865040912 -0.0063999997763164443 0.0031316156923581941 0.031258500587262851 -0.029350403556334122 0.033530653709084056 0.0044955563660140242 0.034776012051067132 -0.035157331051711524 0.011172801101369898 0.034360575501864055 0.034921101665609244 0.032628365594428034 -0.0022565892828429169 0.0065345060157028919 0.01657293332252829 -0.0080290530373819703 -0.00060302263964551661 0.0077791703419627552 0.0069830569381964915 0.0058776913309637252 -0.037185799522192912 -0.027294852631752627 -0.0045749002578856822 -0.026672775790187692 0.024754319453604241 0.00021364427335568675 -0.033777331616613331 -0.038567415179950854 -0.018470911171364911 -0.00053744461812760432 -0.010423382277960495 0.00082199524824395963 -0.010371340423881466 0.0050342075871012805 -0.0079709306657295212 -0.0366579309783669 0.00061617479299648525 0.0029376012141742896 0.023891426913296553 -0.0060669663352401638 0.0049382635313674102 0.022292811413908462 0.0050612614179784202 -0.0069166753601899254 -0.0058796951910642364 -0.0025600171188880014 0.024409009072014973 -0.029538254300785188 -0.0060266510398882759 0.010623065890224742 0.0024884461341147784 -0.0015709130273274835 -0.036747485838984094 0.021776102966202426 0.033024243537884294 0.0077684316340977224 0.026689062857261928 -0.039355891125817458 -0.0066252663414213507 0.03576986410401084
leaf_weight=476 258 46 257 472 345 6831 350 351 124 233 6146 2863 245 676 267 1626 735 84 1174 578 366 341 445 239 1758 494 121 241 2676 481 350 978 8138 3091 3961 1191 1753 610 225 228 241 363 190 752 1477 728 417 173 1319 391 428 8612 639 3771 8137 194 1247 823 3228 99 124 314 66
leaf_count=476 258 46 257 472 345 6831 350 351 124 233 6146 2863 245 676 267 1626 735 84 1174 578 366 341 445 239 1758 494 121 241 2676 481 350 978 8138 3091 3961 1191 1753 610 225 228 241 363 190 752 1477 728 417 173 1319 391 428 8612 639 3771 8137 194 1247 823 3228 99 124 314 66
internal_value=-1.65624e-06 0.00334402 -0.02265 -0.0287363 -0.00924732 0.0226763 0.02643 -0.000498322 0.000635359 0.00737222 -0.0335639 -0.000339317 -0.00231624 -5.15585e-05 0.00804746 0.00238177 -0.000696236 0.00232289 0.00652682 0.00453569 -0.0156317 -0.0114203 0.0233918 -0.0113047 -0.0189311 -0.022311 0.0300661 0.0075646 0.00652671 -0.0222934 -0.0191439 -0.00221388 -0.00143366 0.000164093 -0.00410703 0.00230954 0.00623578 -0.00771626 -0.0161676 0.0180948 0.0210764 0.00547643 -0.0271321 0.0114176 0.0164379 -0.00451676 -0.00456526 0.00312135 -0.00873535 0.0151183 -0.0183747 -0.00503891 -0.000534752 -8.5294e-06 -0.00220076 -0.0206363 0.0143899 0.0292887 0.00434421 0.0106051 -0.0038821 -0.0158915 -0.000773288
internal_weight=85557 74545 11012 7573 3439 9161 7884 1277 65384 8264 6403 57120 1170 56381 4157 3036 52224 17470 9055 7317 2963 691 1121 817 2597 2252 7193 362 6500 739 685 34754 30438 21091 7052 14039 5901 4316 697 473 592 6267 540 3982 2229 1919 3338 1174 2164 564 845 9347 2769 4945 8415 278 4110 947 5904 145 2130 438 1692
internal_count=85557 74545 11012 7573 3439 9161 7884 1277 65384 8264 6403 57120 1170 56381 4157 3036 52224 17470 9055 7317 2963 691 1121 817 2597 2252 7193 362 6500 739 685 34754 30438 21091 7052 14039 5901 4316 697 473 592 6267 540 3982 2229 1919 3338 1174 2164 564 845 9347 2769 4945 8415 278 4110 947 5904 145 2130 438 1692
is_linear=0
shrinkage=0.05


Tree=8
num_leaves=64
num_cat=0
split_feature=82 82 91 30 41 41 83 41 82 44 76 29 41 7 41 15 84 36 91 19 38 65 30 76 30 75 34 41 54 42 76 74 12 59 82 95 1 39 82 90 56 39 30 41 15 71 1 88 18 99 3 54 7 45 79 84 29 41 24 74 69 5 72
split_gain=1111.36 482.719 792.628 390.102 339.171 186.244 145.518 168.676 141.473 148.046 141.079 136.5 146.643 135.798 133.615 104.774 99.7557 95.9478 89.6175 83.168 82.1709 77.0198 76.4798 78.078 69.8076 71.0202 143.746 69.0367 67.2812 76.5492 66.6792 74.9028 65.5986 61.988 60.1795 59.3848 59.1122 59.0419 47.5109 46.8216 58.5635 45.8501 69.6665 48.4674 45.5147 42.6165 41.8417 40.3153 43.5419 40.295 39.8273 37.6362 38.111 37.1419 36.3663 42.2422 36.2181 38.6172 36.0084 34.99 34.8341 33.7396 32.8079
threshold=1.8250000000000004 0.48500000000000004 133.91000000000003 894.09500000000014 0.29500000000000004 0.75500000000000012 0.82500000000000007 0.030000000000000002 1.175 0.59500000000000008 1.5000000000000002 0.38000000000000006 0.045000000000000005 53.000000000000007 0.53500000000000014 0.56500000000000006 1.9700000000000002 62.915000000000013 930.90000000000009 0.115 0.22500000000000003 2.1350000000000002 1018.2000000000002 2.5000000000000004 15.690000000000003 337579.37000000005 871.57000000000005 0.79500000000000015 27.855 0.13500000000000004 1.5000000000000002 407.94500000000005 5.5000000000000009 -7.2899999999999991 1.5250000000000001 472.87000000000006 13.500000000000002 0.46500000000000002 0.93500000000000016 39.520000000000003 -0.014999999999999998 0.95500000000000007 18.015000000000004 0.41000000000000009 0.95500000000000007 -0.95499999999999985 63.500000000000007 5.6350000000000007 0.055000000000000007 1.6071067811850002 20.500000000000004 2.4750000000000005 69.500000000000014 0.95500000000000007 2.5000000000000004 0.81500000000000006 0.57500000000000007 0.7350000000000001 1.0000000180025095e-35 909.42000000000019 36.745000000000005 3.3150000000000004 20.160000000000004
decision_type=2 2 2 2 2 2 2 2 2 2 2 2 2 2 2 2 2 2 2 2 2 2 2 2 2 2 2 2 2 2 2 2 2 2 2 2 2 2 2 2 2 2 2 2 2 2 2 2 2 2 2 2 2 2 2 2 2 2 2 2 2 2 2
left_child=1 2 6 5 17 51 7 16 9 21 -11 12 44 22 -8 -14 60 20 27 37 -3 38 24 -24 58 26 34 -5 29 -12 31 62 -28 46 -26 -15 -31 -13 50 40 -23 -33 -43 -44 -2 -21 -20 48 -37 -41 -6 -4 -53 -19 55 61 -51 -58 -10 -40 -1 -38 -9
right_child=11 4 3 18 8 -7 14 30 13 10 28 19 15 35 -16 -17 -18 53 33 45 -22 39 23 -25 25 -27 32 -29 -30 36 -32 41 -34 -35 -36 47 54 -39 59 49 -42 42 43 -45 -46 -47 -48 -49 -50 56 -52 52 -54 -55 -56 -57 57 -59 -60 -61 -62 -63 -64
leaf_value=-0.028831757679360994 0.030534218728802853 0.027930175257316826 -0.01726404875990081 -0.027917594334276069 -0.00078307475940210937 -0.0067130849279710362 0.023527161334482169 0.0026407452547835774 -0.025824626209999153 0.0028284798746707647 0.0014946055823119506 -0.035529521556899833 0.015882713119287961 0.0034766190885645466 0.0019483823121898376 -0.011176091670049758 0.024549035475972824 0.027609171041681958 0.026123986849619786 0.019288681848025551 -0.026460670254387048 0.0010681367589587905 -0.015305363961357486 0.0053094628415374066 0.0064417493236890166 0.023425452452391901 -0.035068229034590392 -0.00064229555703189693 0.0028179477783681459 -0.0076415251283573783 0.027776951194017626 -0.0022549381528391308 0.034931310476400912 -0.023319242141209544 0.018893415132610902 -0.0012447537418287487 -0.026560176643609976 0.030739568291030247 0.0031840424434162345 0.0022314432301871788 -0.0070308993663165649 -0.033761129638406676 -0.022335078371304485 -0.0053627640864139688 0.01234885877975858 -0.017214511269309989 -0.0051304374659514942 -0.0068675671881020433 0.018494638002179251 -0.0012228790734748192 0.0377685718876975 -0.034489551075624632 -0.020341668989310755 -0.036393229663372044 -0.034111126933553677 -0.0061098553198053948 -0.031901064917657047 -0.0067776186659717734 0.005890573733744936 0.01831115415370152 0.025838284852604074 0.0058778200103619766 -0.025907854624635098
leaf_weight=1013 908 116 433 349 1560 916 878 4383 178 1760 506 34 658 5753 3921 784 102 1570 478 183 173 3614 540 3074 2076 1240 236 692 514 784 179 3289 39 100 1822 1918 1181 2936 596 10031 5837 296 509 2423 554 142 138 3689 327 2424 70 3808 544 23 601 423 211 556 180 1066 30 86 103
leaf_count=1013 908 116 433 349 1560 916 878 4383 178 1760 506 34 658 5753 3921 784 102 1570 478 183 173 3614 540 3074 2076 1240 236 692 514 784 179 3289 39 100 1822 1918 1181 2936 596 10031 5837 296 509 2423 554 142 138 3689 327 2424 70 3808 544 23 601 423 211 556 180 1066 30 86 103
internal_value=-1.5734e-06 -0.00159427 -0.00741508 -0.02102 0.00101825 -0.0273683 -0.00149044 -0.00436617 0.000276077 -0.00182826 -0.00901033 0.0203878 0.0124845 0.00345375 0.00589632 0.00117113 -0.022644 0.0218765 -0.000421382 0.0273532 -0.00462905 -0.00020873 0.00793293 0.00222922 0.0115048 0.012919 0.00979705 -0.00978646 -0.0140986 -0.0165267 -0.00249458 -0.00298704 -0.025141 0.0131946 0.0122619 -0.000143164 -0.0194921 0.0299809 0.0069379 -0.00124638 -0.00393388 -0.00640975 -0.0106431 -0.00830919 0.0236432 0.00333959 0.0191222 -0.00365254 0.00163043 0.000674623 0.000872517 -0.0313223 -0.0327211 0.0266851 -0.0235475 -0.0197909 -0.00421929 -0.013689 -0.00987844 0.0128865 -0.0272593 -0.0243584 0.00198526
internal_weight=85557 79358 24584 7458 54774 5701 17126 12327 52892 31820 5855 6199 2904 21072 4799 1442 1145 1882 1757 3295 289 25965 9385 3614 5771 5413 4173 1041 4095 3581 11182 11003 275 716 3898 11687 3075 2970 3292 22673 9451 6517 3228 2932 1462 325 616 5934 2245 13222 1630 4785 4352 1593 2291 1690 3191 767 358 1662 1043 1267 4486
internal_count=85557 79358 24584 7458 54774 5701 17126 12327 52892 31820 5855 6199 2904 21072 4799 1442 1145 1882 1757 3295 289 25965 9385 3614 5771 5413 4173 1041 4095 3581 11182 11003 275 716 3898 11687 3075 2970 3292 22673 9451 6517 3228 2932 1462 325 616 5934 2245 13222 1630 4785 4352 1593 2291 1690 3191 767 358 1662 1043 1267 4486
is_linear=0
shrinkage=0.05


Tree=9
num_leaves=64
num_cat=0
split_feature=40 40 34 34 67 8 55 40 35 40 37 13 15 34 34 33 36 48 67 2 89 87 44 37 44 12 34 1 37 6 19 84 82 7 96 2 56 11 64 90 15 83 22 35 14 72 48 91 52 77 55 37 84 13 98 96 35 42 48 36 5 7 34
split_gain=2137.04 1286.36 277.6 290.519 340.606 270.097 366.739 173.893 154.013 151.148 391.077 147.677 142.369 130.241 185.528 115.533 111.151 110.98 112.427 102.114 89.9222 78.4066 74.9545 70.5564 118.856 67.9012 65.6802 72.5601 61.6478 59.4545 58.6883 58.1098 56.5424 72.7436 56.3386 50.4745 46.3449 58.3571 45.7969 59.5542 45.7093 45.6344 61.8834 70.1385 44.6086 43.9307 40.8054 68.6313 85.3478 45.1711 39.473 38.811 36.2694 34.8231 33.5278 31.1445 30.4835 42.6533 30.0482 53.8603 29.8126 29.5484 29.3843
threshold=0.38500000000000006 0.74500000000000011 988.60500000000013 133.02000000000001 10.210000000000003 2.5000000000000004 1.0000000180025095e-35 0.97500000000000009 0.9850000000000001 0.51500000000000012 7.8700000000000001 31.000000000000004 0.99500000000000011 941.95000000000016 1009.2550000000001 341.29500000000002 4.7750000000000012 -0.69999999999999984 4.5550000000000006 7.5000000000000009 2059.7850000000003 6511.8000000000002 0.66500000000000015 6.7200000000000006 0.43500000000000005 2.5000000000000004 1143.9700000000003 20.500000000000004 77.000000000000014 13.500000000000002 0.12500000000000003 0.75500000000000012 1.6100000000000003 54.500000000000007 20.420000000000005 2.5000000000000004 -0.084999999999999978 1.0000000180025095e-35 -0.034999999999999996 110.89500000000002 0.96500000000000008 0.81500000000000006 0.055000000000000007 0.97500000000000009 0.025000000000000005 15.085000000000003 -0.044999999999999991 64.580000000000013 2.2500000000000004 1.5000000000000002 0.03500000000000001 17.890000000000004 0.36500000000000005 47.000000000000007 114.83500000000002 35.105000000000011 0.99500000000000011 0.99500000000000011 0.95500000000000007 24.240000000000006 4.0550000000000006 69.500000000000014 1029.6600000000003
decision_type=2 2 2 2 2 2 2 2 2 2 2 2 2 2 2 2 2 2 2 2 2 2 2 2 2 2 2 2 2 2 2 2 2 2 2 2 2 2 2 2 2 2 2 2 2 2 2 2 2 2 2 2 2 2 2 2 2 2 2 2 2 2 2
left_child=2 9 3 4 21 7 26 31 -4 13 22 61 17 16 -15 -14 35 -12 28 29 -8 -1 -11 24 -18 62 60 -28 -19 -6 34 -3 46 -34 38 -2 37 -32 -25 -40 -9 42 58 -44 -33 50 47 48 -20 -50 -43 -41 -10 -13 -45 -49 57 -39 59 -36 -7 -5 -17
right_child=1 5 8 11 19 6 20 40 52 10 12 53 15 14 -16 25 23 18 32 -21 -22 -23 -24 30 -26 -27 27 -29 -30 -31 36 44 33 -35 41 -37 -38 56 39 51 -42 45 43 54 -46 -47 -48 55 49 -51 -52 -53 -54 -55 -56 -57 -58 -59 -60 -61 -62 -63 -64
leaf_value=-0.00024673510582374082 -0.0012599093504477204 0.010201581610238243 0.031087057434617441 -0.032164971505212095 -0.0012104575280458309 0.029868195831399009 0.0022352989284055574 0.030610267020910555 0.0044784991023867201 0.030468150711332426 0.037086870901695289 -0.010157206927010037 0.00099581091106972766 0.029891531083964491 -0.0013045528941153771 -0.035501166824188489 -0.032275205241236837 0.029088136298187652 0.017549747841570023 -0.00068246087712170325 -0.035799474211535974 0.028140312329974999 -0.00011844909160289091 -0.002373898521738927 -0.001566371089730112 -0.0046069308760561005 -0.02504864056769774 0.022747358513866993 0.00055153609178325335 -0.029549903577990151 0.042747970163321297 -0.036036652468144893 0.014739205923074331 0.001909585758103855 -0.046058693176342383 -0.030889032592439327 -0.0020616926447750185 0.0001648139923677913 -0.00058132676090756369 0.021399999981936577 0.0023308041362532445 0.00044554173879239107 -0.0027641677257324387 -0.034493380373855333 -0.0059436496803046846 -0.018876551456289307 0.002713010605226134 -0.00033552652345747078 -0.0074242713579995238 0.0089156072324342462 -0.011966857406964881 0.006448984785665037 -0.020863337076093627 0.020876883577649333 -0.015916033900238019 -0.009183734649164459 0.0006280053135949773 0.018848821859768675 -0.012064460894885692 -0.0025990403206473129 0.020703934900899629 -0.020230673909621175 -0.0084604236397368849
leaf_weight=486 205 145 360 5658 208 5793 455 351 239 1507 237 376 1125 788 1206 592 500 607 814 484 236 487 231 5423 852 374 121 231 275 1679 119 350 1798 2866 72 481 1731 483 2957 572 241 8457 752 386 190 337 9900 1523 1236 643 693 1800 345 119 655 2866 1075 831 1052 7242 1048 571 121
leaf_count=486 205 145 360 5658 208 5793 455 351 239 1507 237 376 1125 788 1206 592 500 607 814 484 236 487 231 5423 852 374 121 231 275 1679 119 350 1798 2866 72 481 1731 483 2957 572 241 8457 752 386 190 337 9900 1523 1236 643 693 1800 345 119 655 2866 1075 831 1052 7242 1048 571 121
internal_value=-1.49473e-06 0.0030357 -0.0205616 -0.0229924 -0.0109486 0.0205828 0.0240381 -0.000749385 0.00536425 0.000577156 0.00346943 -0.0289821 0.00187363 -0.00142101 0.0110237 -0.0102365 -0.00209762 0.00305033 0.00269226 -0.021171 -0.0107549 0.0139614 0.0264028 -0.00171759 -0.0129232 -0.0218614 0.0273805 0.00631748 0.0201907 -0.0264261 -0.0012802 -0.017902 0.00197926 0.00685548 -0.00204877 -0.0220348 0.00423126 0.0085746 0.000860895 0.00415275 0.0190979 -0.00364119 -0.00596992 -0.0143994 -0.0254484 -0.00114752 0.000640033 -0.0022578 0.00402593 -0.00183271 -0.000494545 0.0100544 -0.0104923 -0.00269649 -0.0228045 -0.00611337 0.00687237 0.011981 -0.00416331 -0.00302686 0.0284643 -0.031071 -0.0309122
internal_weight=85557 74545 11012 10068 3344 9161 7884 1277 944 65384 26715 6724 24977 38669 1994 2212 36675 22765 22528 2371 691 973 1738 35989 1352 1087 7193 352 882 1887 34637 685 21646 4664 30398 686 4239 2508 10752 5329 592 19646 10159 1793 540 9487 16982 7082 2693 1879 9150 2372 584 495 1041 4389 2389 1314 8366 7314 6841 6229 713
internal_count=85557 74545 11012 10068 3344 9161 7884 1277 944 65384 26715 6724 24977 38669 1994 2212 36675 22765 22528 2371 691 973 1738 35989 1352 1087 7193 352 882 1887 34637 685 21646 4664 30398 686 4239 2508 10752 5329 592 19646 10159 1793 540 9487 16982 7082 2693 1879 9150 2372 584 495 1041 4389 2389 1314 8366 7314 6841 6229 713
is_linear=0
shrinkage=0.05


Tree=10
num_leaves=64
num_cat=0
split_feature=82 85 41 84 41 9 32 29 75 48 81 75 53 85 12 35 44 45 79 53 18 41 94 85 75 74 58 75 33 25 37 88 34 36 41 38 31 1 84 63 80 79 90 84 80 29 87 34 75 34 22 88 34 31 41 6 4 50 16 1 71 30 6
split_gain=861.973 514.776 638.118 517.55 319.279 248.668 179.249 112.271 127.429 93.029 90.5733 102.099 82.3303 76.0855 74.6823 69.5907 75.0658 66.6193 64.8246 64.7022 64.6033 69.3014 72.5671 63.5508 62.585 61.4323 84.8359 88.9346 60.7956 60.467 60.3726 58.1629 57.9171 56.8062 56.7909 55.2681 52.8867 52.8743 49.626 48.348 48.02 70.059 65.2394 46.699 65.2298 47.0783 45.6436 45.1756 45.0313 44.8949 43.5535 44.1803 42.6727 55.7512 53.8872 44.5497 42.0557 41.7604 39.0234 38.2872 37.7022 37.3165 35.7143
threshold=1.8250000000000004 0.41500000000000004 0.39000000000000007 0.80500000000000016 0.47000000000000003 3.5000000000000004 21.775000000000002 0.38000000000000006 297923.37000000005 1.0000000180025095e-35 1.5000000000000002 175673.09500000003 13.305000000000001 0.83500000000000008 7.0000000000000009 0.97500000000000009 0.7350000000000001 0.30500000000000005 2.5000000000000004 11.685 0.055000000000000007 0.75500000000000012 998.87 0.53500000000000014 478637.33000000007 2987.8950000000004 10.705000000000002 297923.37000000005 362.40500000000003 0.9850000000000001 21.940000000000001 56.20000000000001 16.240000000000006 459.69500000000005 0.67500000000000016 0.22500000000000003 25.350000000000005 13.500000000000002 0.84500000000000008 0.015000000000000001 1.0000000180025095e-35 1.5000000000000002 579.92000000000019 0.77500000000000013 1.5000000000000002 0.66500000000000015 811.9100000000002 1143.9700000000003 240171.31500000003 881.47000000000014 0.075000000000000025 278.55500000000001 630.14000000000021 871.57000000000005 0.65000000000000013 25.500000000000004 2.6050000000000004 -0.044999999999999991 0.90500000000000014 37.500000000000007 -0.95499999999999985 30.420000000000005 4.5000000000000009
decision_type=2 2 2 2 2 2 2 2 2 2 2 2 2 2 2 2 2 2 2 2 2 2 2 2 2 2 2 2 2 2 2 2 2 2 2 2 2 2 2 2 2 2 2 2 2 2 2 2 2 2 2 2 2 2 2 2 2 2 2 2 2 2 2
left_child=1 2 3 5 25 12 -7 8 34 15 11 46 -1 17 47 16 18 28 43 23 21 22 -17 49 -23 26 -3 -28 -12 36 -26 -22 -5 -8 -2 -27 62 -18 -37 -10 41 42 -15 44 45 -4 -6 -9 -19 -13 -42 -52 54 -54 55 -38 -25 -45 -20 -29 -16 -56 -11
right_child=7 4 9 32 10 6 33 14 39 29 13 19 -14 40 60 20 37 48 58 -21 31 24 -24 56 30 35 27 59 -30 -31 -32 -33 -34 -35 -36 38 52 -39 -40 -41 50 -43 -44 57 -46 -47 -48 -49 -50 -51 51 -53 53 -55 61 -57 -58 -59 -60 -61 -62 -63 -64
leaf_value=0.015089979143320727 0.023588140222536066 0.028365713337026855 0.0092488193595462072 -0.031361857559531928 -0.00060042383897240586 0.031333746329288592 -0.028964815104514464 0.027310807413184569 0.0026859834177795452 -0.035372552038392145 -0.0057386221035211566 -0.0014537949419179859 -0.019369508506586919 0.00094814506959554944 0.018374098665625244 -0.02199708469340322 0.0025513291201971857 -0.0080040228506053739 -0.010577100123486321 0.013442142867358592 -0.0029895466470704628 -0.0050983235634195316 0.019133252033209508 -0.0012681217884158403 0.024301123287042845 0.024890084370550975 0.020732987653016181 -0.028156195790369133 0.030160830157605567 0.015569397945958222 -0.023195554048989913 -0.024949808000238896 0.019384299246775316 -0.011321676923046566 0.0020283738329257232 0.020084441189964615 -0.031551650403980246 -0.02205135132774895 -0.028364492977797653 -0.023326314591187322 -0.0010113325418915915 -0.0014127271764943984 0.015550348494149675 0.014801136817489069 -0.0096769510486223037 -0.0043412325412595402 0.0053790423543729933 -0.032417858850021734 -0.024020901492527936 -0.032550100332429242 0.00031166329359303346 -0.018423645978515979 0.03095688373953881 0.0026080370842894154 -0.032596047755214387 0.024663733091296221 0.022928598599579395 0.001054158780718895 0.013298027126226148 0.0057036338674581865 -0.016556533402012241 -0.0011736468698026119 0.011515645029302867
leaf_weight=520 1422 1533 1565 60 10362 132 5690 2959 882 42 366 1158 260 1423 154 943 315 1149 1725 3414 440 3724 121 291 345 142 603 169 174 723 83 958 894 496 389 75 251 712 179 224 12352 3701 1654 1141 1387 1075 4612 32 710 129 538 758 211 974 96 41 469 1071 190 165 155 5987 1229
leaf_count=520 1422 1533 1565 60 10362 132 5690 2959 882 42 366 1158 260 1423 154 943 315 1149 1725 3414 440 3724 121 291 345 142 603 169 174 723 83 958 894 496 389 75 251 712 179 224 12352 3701 1654 1141 1387 1075 4612 32 710 129 538 758 211 974 96 41 469 1071 190 165 155 5987 1229
internal_value=6.8773e-06 -0.0013948 -0.00612212 -0.0183843 0.00202837 -0.0230316 -0.0263199 0.0179369 0.0107903 -0.00222708 0.000957647 0.00337558 0.00360348 -0.00120711 0.0242541 -0.00458284 -0.00176593 -0.0096306 -0.000161409 0.00922789 -0.00849304 -0.00593474 -0.0173197 0.00219933 -0.00301722 0.0181901 0.0211212 0.00926862 0.00582898 0.00166755 0.0150903 -0.0180381 0.0161927 -0.0275502 0.0189571 -9.22201e-05 0.000529398 -0.0145053 -0.0140587 -0.00258233 -0.000217783 0.00322233 0.00879736 0.0023085 -0.00089753 0.00371499 0.00124125 0.0266718 -0.0141213 -0.00457067 -0.00192625 -0.0106462 -0.00105714 0.00765581 -0.00267672 -0.0236584 0.0136638 0.00814516 -0.00820829 -0.011429 0.000852261 -0.00166955 0.00996623
internal_weight=85744 79527 33401 8052 46126 7098 6318 6217 2917 25349 43260 20435 780 22825 3300 15795 9181 2399 8154 5461 6614 5216 1064 2047 4152 2866 2470 937 540 9554 428 1398 954 6186 1811 396 8831 1027 254 1106 20426 6778 3077 6239 4027 2640 14974 2991 1859 1287 13648 1296 7560 1185 6375 292 760 2212 1915 334 309 6083 1271
internal_count=85744 79527 33401 8052 46126 7098 6318 6217 2917 25349 43260 20435 780 22825 3300 15795 9181 2399 8154 5461 6614 5216 1064 2047 4152 2866 2470 937 540 9554 428 1398 954 6186 1811 396 8831 1027 254 1106 20426 6778 3077 6239 4027 2640 14974 2991 1859 1287 13648 1296 7560 1185 6375 292 760 2212 1915 334 309 6083 1271
is_linear=0
shrinkage=0.05


Tree=11
num_leaves=64
num_cat=0
split_feature=82 85 41 84 41 9 32 83 29 75 48 81 75 67 19 85 32 45 36 30 75 16 36 74 5 29 85 25 74 75 43 41 97 38 32 74 76 91 36 84 41 80 79 90 13 46 99 87 39 22 41 83 49 76 41 77 3 63 71 46 3 30 45
split_gain=777.931 464.585 575.901 467.089 288.15 224.423 161.773 131.298 101.324 115.004 83.9587 81.7424 92.1447 74.0913 69.0108 68.6672 61.7945 60.1239 59.8 55.8647 78.907 99.4084 68.9359 55.4427 64.4688 63.9653 63.3981 54.5715 53.4484 52.9398 51.2772 51.2538 50.2073 49.8795 47.179 46.5857 45.918 57.433 50.8299 44.7874 43.8007 43.3381 63.2283 59.4604 42.3535 41.7971 41.606 41.1933 41.0592 39.307 38.851 38.7729 37.9107 51.997 37.4844 36.1566 36.0983 35.727 35.173 33.7323 37.2649 33.6641 33.6509
threshold=1.8250000000000004 0.41500000000000004 0.39000000000000007 0.80500000000000016 0.47000000000000003 3.5000000000000004 21.775000000000002 0.82500000000000007 0.38000000000000006 297923.37000000005 1.0000000180025095e-35 1.5000000000000002 175673.09500000003 21.075000000000003 0.115 0.83500000000000008 6.370000000000001 0.30500000000000005 459.69500000000005 16.905000000000005 380361.92500000005 0.79500000000000015 754.16500000000008 2987.8950000000004 4.1400000000000015 0.065000000000000016 0.76500000000000012 0.9850000000000001 2987.8950000000004 615595.19000000006 0.025000000000000005 0.67500000000000016 1.0000000180025095e-35 0.22500000000000003 21.160000000000004 388.23500000000007 2.5000000000000004 74.790000000000006 109.76500000000001 0.84500000000000008 0.63000000000000012 1.0000000180025095e-35 1.5000000000000002 937.04500000000019 3.5000000000000004 1.0000000180025095e-35 0.15000000000000005 811.9100000000002 0.46500000000000002 0.075000000000000025 0.045000000000000005 1.2500000000000002 0.12500000000000003 1.5000000000000002 0.85500000000000009 1.0000000180025095e-35 15.000000000000002 1.0000000180025095e-35 -0.95499999999999985 0.015000000000000001 20.500000000000004 30.420000000000005 0.99500000000000011
decision_type=2 2 2 2 2 2 2 2 2 2 2 2 2 2 2 2 2 2 2 2 2 2 2 2 2 2 2 2 2 2 2 2 2 2 2 2 2 2 2 2 2 2 2 2 2 2 2 2 2 2 2 2 2 2 2 2 2 2 2 2 2 2 2
left_child=1 2 3 5 23 13 -7 18 9 31 19 12 47 -1 48 17 -14 57 -8 32 21 36 29 24 26 -26 -3 34 -5 54 -31 -2 -4 -25 -12 -11 37 55 -38 -35 -23 42 43 -17 -42 -19 -18 -6 -10 59 -30 61 -39 -54 -22 -21 -37 -13 -16 -43 -61 -36 -47
right_child=8 4 10 28 11 6 7 -9 14 35 27 15 16 -15 58 41 46 45 -20 20 22 40 -24 33 25 -27 -28 -29 50 30 -32 -33 -34 39 51 56 38 52 -40 -41 44 49 -44 -45 -46 62 -48 -49 -50 -51 -52 -53 53 -55 -56 -57 -58 -59 -60 60 -62 -63 -64
leaf_value=0.013573232794399648 0.022408732940127182 -0.019844179987152922 0.0054981694351105646 0.020655805956754814 -0.00057040264649521567 0.029767059101582029 -0.028676409578606524 0.025183557914417301 -0.030796966981142759 0.029916658937599108 0.0091248366573220049 -0.0070873727568171244 -0.01872723019264667 -0.019973124450041079 0.016181218834378973 0.0022405646509184797 0.0018795467404006717 -0.0271240748151719 -0.010440679293688662 -0.0075540901201355112 0.022916901783845083 0.0095930955471501076 -0.009247903849527327 0.023645580047188152 0.014490911505232027 -0.026946851122932186 0.025865096736499706 0.014790928004445234 0.017714448295422455 0.027861655896509088 -0.015996583273443093 0.0019269552043517024 -0.032507848706510335 0.019080219194293022 -0.030966245477369134 -0.01005751791426278 0.0084013200492482065 -0.005775583145688306 -0.0041809757923777476 -0.026946268563013128 0.034144708243283355 0.0018150185940460863 -0.0013420908333626668 0.016255304162370681 -0.015285464296619797 -0.0044479258077540981 0.012291631318415361 0.0051100902358334876 0.026149705493972067 -0.010113870600407946 -0.032455275088016482 0.024557564112494282 -0.0007471719427035511 -0.023082321756141361 -0.007217687878663801 0.0033175827067393453 0.014930873910231249 0.018638844896670222 -0.015728707275082989 -0.0038554347616214842 0.029276063087461304 -0.0011621301025200813 -0.021393919443890654
leaf_weight=544 1422 79 120 796 10362 132 5575 122 32 101 1345 275 197 236 195 1734 1262 428 489 1148 777 201 514 142 357 126 1908 723 67 91 249 389 315 75 96 830 1621 2603 1590 179 44 5803 3701 1343 2870 1020 4002 4612 2918 1296 91 145 372 870 119 2291 175 265 155 6463 86 7245 411
leaf_count=544 1422 79 120 796 10362 132 5575 122 32 101 1345 275 197 236 195 1734 1262 428 489 1148 777 201 514 142 357 126 1908 723 67 91 249 389 315 75 96 830 1621 2603 1590 179 44 5803 3701 1343 2870 1020 4002 4612 2918 1296 91 145 372 870 119 2291 175 265 155 6463 86 7245 411
internal_value=6.53348e-06 -0.00132506 -0.00581601 -0.0174651 0.00192695 -0.0218801 -0.0250039 -0.0261727 0.0170401 0.0102508 -0.00211572 0.000909764 0.0032068 0.00342331 0.0230414 -0.00114675 0.0087665 -0.00914907 -0.0272059 -0.0043537 -0.00385329 -0.00513834 0.00614078 0.0172806 0.0200651 0.00368106 0.0240478 0.00158417 0.0153831 0.0125403 -0.00425805 0.0180093 -0.0220234 -8.76093e-05 0.000502928 -0.00245321 -0.0028103 -0.00500617 0.00217091 -0.0133558 -0.0129819 -0.000206894 0.00306122 0.0083575 -0.0145391 -0.0134152 0.00979542 0.00117919 0.025532 -0.00182994 -0.0111808 -0.00104616 -0.00920505 -0.0163926 0.0189147 -0.000311577 -0.00570631 0.00553753 0.00204968 -0.000960766 -0.00342036 -0.00155189 -0.00931501
internal_weight=85744 79527 33401 8052 46126 7098 6318 6186 6217 2917 25349 43260 20435 780 3300 22825 5461 2399 6064 15795 15360 13610 1750 2866 2470 483 1987 9554 954 1236 340 1811 435 396 8831 1106 10495 7284 3211 254 3115 20426 6778 3077 2914 1859 5264 14974 2950 13648 158 7486 3845 1242 896 3439 1005 540 350 12352 6549 7341 1431
internal_count=85744 79527 33401 8052 46126 7098 6318 6186 6217 2917 25349 43260 20435 780 3300 22825 5461 2399 6064 15795 15360 13610 1750 2866 2470 483 1987 9554 954 1236 340 1811 435 396 8831 1106 10495 7284 3211 254 3115 20426 6778 3077 2914 1859 5264 14974 2950 13648 158 7486 3845 1242 896 3439 1005 540 350 12352 6549 7341 1431
is_linear=0
shrinkage=0.05


Tree=12
num_leaves=64
num_cat=0
split_feature=40 40 29 0 32 68 8 75 21 32 14 87 99 80 84 1 40 6 0 46 69 40 94 13 51 75 73 37 36 68 73 0 21 8 15 63 4 17 84 83 84 0 80 79 1 47 96 1 53 40 13 52 80 53 84 88 64 90 70 95 60 87 4
split_gain=1583.93 978.072 252.778 217.206 242.398 241.68 216.013 211.188 124.001 108.619 108.579 100.381 149.963 101.32 109.92 97.151 95.634 93.2109 82.1986 74.4912 71.4166 63.3323 54.5943 53.9948 49.92 48.2968 110.337 96.2376 150.597 69.2435 54.6926 149.98 90.1852 49.9605 48.2122 47.4004 67.0411 54.6028 51.1451 46.0465 44.3306 41.3363 41.267 40.3398 40.2165 39.661 39.3341 38.2394 38.1699 37.7558 36.2742 36.2043 34.87 34.8092 44.8098 32.7711 32.1027 55.224 53.9589 30.3932 30.3161 30.0192 29.8196
threshold=0.37500000000000006 0.60500000000000009 0.38000000000000006 1.0000000180025095e-35 998.2600000000001 12.500000000000002 2.5000000000000004 443602.84000000003 0.025000000000000005 6.370000000000001 1.0000000180025095e-35 1156.2850000000001 0.15000000000000005 1.0000000180025095e-35 0.59500000000000008 34.000000000000007 0.97500000000000009 9.5000000000000018 1.0000000180025095e-35 1.0000000180025095e-35 97.065000000000012 0.90500000000000014 1034.1800000000003 19.500000000000004 9.3450000000000006 410730.82500000007 1.0000000180025095e-35 9.9650000000000016 521.59000000000015 3.4500000000000006 1.0000000180025095e-35 1.0000000180025095e-35 0.83500000000000008 3.5000000000000004 0.95500000000000007 -0.32499999999999996 4.4350000000000014 0.025000000000000005 1.175 0.83500000000000008 0.58500000000000008 1.0000000180025095e-35 1.5000000000000002 1.0000000180025095e-35 78.000000000000014 -1.0000000180025095e-35 66.675000000000011 32.500000000000007 11.685 0.45500000000000007 11.500000000000002 14.125000000000002 1.5000000000000002 9.8250000000000011 0.84500000000000008 21.035000000000004 -0.014999999999999998 24.790000000000003 -0.094999999999999987 103.22500000000001 3.0950000000000002 6511.8000000000002 9.9600000000000026
decision_type=2 2 2 2 2 2 2 2 2 2 2 2 2 2 2 2 2 2 2 2 2 2 2 2 2 2 2 2 2 2 2 2 2 2 2 2 2 2 2 2 2 2 2 2 2 2 2 2 2 2 2 2 2 2 2 2 2 2 2 2 2 2 2
left_child=3 9 7 5 17 61 15 16 -8 23 22 25 -13 14 51 -4 21 -5 35 53 45 24 -6 43 60 27 -27 28 33 -29 32 -32 55 -11 -18 36 -15 38 40 -38 42 -30 -37 49 -23 -7 -26 -12 -20 52 -39 -14 -2 54 -9 -31 -57 58 -58 -44 -3 -1 -21
right_child=1 2 6 4 10 20 8 19 -10 11 47 12 13 18 -16 -17 34 -19 48 62 -22 44 -24 -25 46 26 -28 29 41 30 31 -33 -34 -35 -36 37 39 50 -40 -41 -42 -43 59 -45 -46 -47 -48 -49 -50 -51 -52 -53 -54 -55 -56 56 57 -59 -60 -61 -62 -63 -64
leaf_value=0.0077116139148572646 0.038894893937423583 -0.0012288574230394532 -0.026606486694266403 0.0041287854216431729 -0.02687733293236777 -0.0072882222826840528 0.025508655452745568 0.0093562947272535554 0.0037309348314090527 -0.0034467989539467346 0.029145589527738006 -0.015211627199214301 0.020347434791189244 0.018459598812152835 0.0030046023615627688 0.025612196837719838 0.025486035149774912 -0.027701011314776033 0.0013554012189521429 0.00064924764335801957 0.0055719052800963613 -0.027288924807468386 0.0012472028313174311 -0.0030713591422115681 0.010388653773789933 -0.00034869731340133686 0.030075851145279994 -0.040071636804363188 -0.00096742671448737385 -2.4417509210918867e-05 0.0011125814249430079 0.031923628374934197 0.033575196645946964 0.032438582432469436 0.01022369051531913 0.002130315810045792 -0.0021275566672320887 0.035640672310811916 -0.0098326423540646742 0.010241653309152372 0.0061850066806073307 -0.033022347232600384 -0.017688500696811254 -0.03276106610697193 0.0085278588425998971 -0.0227142269201113 -0.0089116879272039626 0.0011752340077385958 0.030224868296711168 -0.03442913181691741 -0.0038062833920222425 0.0083160008308587 -0.028503093984909356 -0.029117159731907555 -0.019147267196845594 -0.0014493340435250343 -0.024501806057354459 -0.0023809204509770256 -0.0076496698002376327 -0.0039534513275242024 0.018536584459401737 0.028238978801911948 0.031280352796117468
leaf_weight=336 61 233 330 239 394 587 6106 206 732 306 262 1054 1970 751 3134 122 1455 6112 169 461 373 213 307 469 532 1186 398 114 118 13653 3859 440 180 142 803 1714 2280 159 1800 1123 1844 681 619 468 124 1436 524 229 355 57 92 916 28 368 417 11286 577 5366 2687 1153 1159 379 96
leaf_count=336 61 233 330 239 394 587 6106 206 732 306 262 1054 1970 751 3134 122 1455 6112 169 461 373 213 307 469 532 1186 398 114 118 13653 3859 440 180 142 803 1714 2280 159 1800 1123 1844 681 619 468 124 1436 524 229 355 57 92 916 28 368 417 11286 577 5366 2687 1153 1159 379 96
internal_value=6.20675e-06 0.00256598 0.0145489 -0.0180352 -0.0226201 -0.00691862 0.0209645 0.0074528 0.0231774 -0.000151506 -0.00193079 0.000131175 0.00312156 0.00419038 0.00948809 -0.0125121 0.0124115 -0.0265032 0.00154569 -0.00870149 -0.0145315 0.00621168 -0.0145603 -0.0158454 0.00900924 -0.00126455 0.00729585 -0.00160863 -0.0152773 -0.00116198 -0.0010454 0.00426607 -0.00172198 0.00792759 0.0200584 0.000665855 0.0049383 -0.00173866 -0.00254555 0.00195432 -8.4615e-05 -0.0282883 -0.00340108 -0.0256028 -0.01411 -0.0182382 0.00081159 0.0161004 0.0209139 -0.00265725 0.021182 0.0165287 0.017691 -0.0169244 -0.00972233 -0.00191125 -0.00320473 -0.00550037 -0.0106287 -0.00875142 0.0152281 0.0185926 0.00592858
internal_weight=85744 75090 13881 10654 7543 3111 7290 6591 6838 61209 1192 60126 19133 18079 6020 452 5043 6351 12059 1548 2396 2785 701 1083 2448 40993 1584 39409 1247 38162 38048 4299 33749 448 2258 11535 4154 7381 7130 3403 5330 799 3486 614 337 2023 1056 491 524 146 251 2886 89 991 623 33569 19916 8630 3264 1772 1392 715 557
internal_count=85744 75090 13881 10654 7543 3111 7290 6591 6838 61209 1192 60126 19133 18079 6020 452 5043 6351 12059 1548 2396 2785 701 1083 2448 40993 1584 39409 1247 38162 38048 4299 33749 448 2258 11535 4154 7381 7130 3403 5330 799 3486 614 337 2023 1056 491 524 146 251 2886 89 991 623 33569 19916 8630 3264 1772 1392 715 557
is_linear=0
shrinkage=0.05


Tree=13
num_leaves=64
num_cat=0
split_feature=40 40 29 0 31 67 8 75 75 32 14 87 86 80 1 0 40 58 69 17 92 82 3 94 11 47 84 67 75 73 37 36 68 73 0 8 15 36 52 0 33 79 13 53 1 13 37 54 1 40 92 25 44 80 63 64 94 18 94 56 96 87 39
split_gain=1429.5 882.71 228.133 196.028 218.764 218.116 194.952 190.597 100.482 98.0284 97.9927 90.5935 135.515 100.184 87.6787 87.2125 86.3097 72.6392 64.4535 61.7704 57.9926 53.9712 53.8195 49.2714 48.7303 48.3466 48.0976 44.5546 43.5878 99.5791 86.8544 135.914 62.4922 49.3601 135.357 45.0894 43.5115 42.627 38.6328 37.306 36.7468 36.4066 35.5843 34.9597 34.5111 34.3003 34.1887 34.1363 42.7607 34.0746 33.1891 33.9584 64.8331 31.4702 31.3739 30.4162 40.4025 43.7853 30.1997 28.6544 27.5686 27.3744 27.2808
threshold=0.37500000000000006 0.60500000000000009 0.38000000000000006 1.0000000180025095e-35 996.65000000000009 7.660000000000001 2.5000000000000004 443602.84000000003 98611.635000000024 6.370000000000001 1.0000000180025095e-35 1156.2850000000001 0.15000000000000005 1.5000000000000002 34.000000000000007 1.0000000180025095e-35 0.97500000000000009 7.4050000000000011 97.065000000000012 0.025000000000000005 157.35000000000002 0.97500000000000009 3.5000000000000004 1034.1800000000003 1.0000000180025095e-35 0.055000000000000007 0.84500000000000008 4.995000000000001 410730.82500000007 1.0000000180025095e-35 9.9650000000000016 521.59000000000015 3.4500000000000006 1.0000000180025095e-35 1.0000000180025095e-35 3.5000000000000004 0.95500000000000007 7.0050000000000008 14.125000000000002 1.0000000180025095e-35 8.7850000000000019 1.0000000180025095e-35 11.500000000000002 11.685 32.500000000000007 47.000000000000007 47.115000000000009 2.4750000000000005 13.500000000000002 0.45500000000000007 73.100000000000009 0.2950000000000001 0.71500000000000008 1.5000000000000002 0.015000000000000001 -0.014999999999999998 58.490000000000002 0.055000000000000007 230.65000000000001 -1.0000000180025095e-35 138.32000000000002 6798.795000000001 0.47500000000000003
decision_type=2 2 2 2 2 2 2 2 2 2 2 2 2 2 2 2 2 2 2 2 2 2 2 2 2 2 2 2 2 2 2 2 2 2 2 2 2 2 2 2 2 2 2 2 2 2 2 2 2 2 2 2 2 2 2 2 2 2 2 2 2 2 2
left_child=3 9 7 5 22 61 14 16 -8 24 23 28 13 38 -4 19 20 26 40 21 27 62 -5 -6 -2 -23 -9 -3 30 -30 31 35 -32 50 -35 -11 -18 -28 -13 -33 -7 49 -21 -17 -12 -29 -10 48 -24 53 51 58 -53 -26 -22 -52 57 59 -34 -57 -42 -1 -14
right_child=1 2 6 4 10 18 8 17 46 11 44 12 15 -15 -16 43 36 -19 -20 42 54 25 47 -25 41 -27 37 45 29 -31 32 39 33 34 -36 -37 -38 -39 -40 -41 60 -43 -44 -45 -46 -47 -48 -49 -50 -51 55 52 -54 -55 -56 56 -58 -59 -60 -61 -62 -63 -64
leaf_value=0.0083211149456182409 -0.0029177912159327433 -0.027851111850101657 -0.025276162181698692 0.0078490496589994629 -0.0255334665814443 -0.031050217757830942 0.0025639924103772263 0.011113903909948044 0.024846418982808129 -0.0032744589665930513 0.027688309889400506 0.016430014152978477 0.0042207916914408037 -0.0023844280116361682 0.024331586092298272 0.0013747767116159516 0.024211733200622539 -0.027661301900946497 0.0052933100479497048 0.033966904295608405 0.0014645163762636551 0.00042112725480979423 0.0014891001499361463 0.0011848425850611946 0.036950149238071418 0.017506781991940102 -0.02976439048105738 0.0089797192407238633 -0.00033126245026411308 0.02857205865286927 -0.038068054758192027 -0.00091905538111104301 -0.00012344662331936301 0.0010569523506625076 0.030327446957288142 0.030816653114415601 0.0097125059014573634 -0.0027222574369195661 0.0062075160165288509 -0.031371229960858033 -0.0087419154122797497 -0.031123012774942335 -0.0037477435874189815 0.02782609060042775 0.0011164723647916976 0.027056941871715201 0.0093122179968905105 -0.027158446928253272 -0.024270737826995646 -0.032707675131397294 -0.0011258634903575984 -0.0035767926440033178 -0.04036542263938972 -0.027077939354681543 -0.019607286481363808 -0.020903361535294016 -0.0028608924129165407 -0.022986110730647959 0.0061604888906529572 -0.0048813129903768036 -0.022032437481380528 0.027908781766509117 -0.0069602710995751924
leaf_weight=374 469 73 330 121 394 393 605 430 5856 306 262 2940 632 1354 122 184 1455 368 373 200 538 7569 243 307 61 438 198 1597 1186 398 114 118 12122 3859 440 142 803 552 1348 681 983 468 91 389 229 314 377 5509 478 57 8578 2418 126 28 263 326 5427 544 2270 1938 647 341 3988
leaf_count=374 469 73 330 121 394 393 605 430 5856 306 262 2940 632 1354 122 184 1455 368 373 200 538 7569 243 307 61 438 198 1597 1186 398 114 118 12122 3859 440 142 803 552 1348 681 983 468 91 389 229 314 377 5509 478 57 8578 2418 126 28 263 326 5427 544 2270 1938 647 341 3988
internal_value=5.89643e-06 0.00243768 0.0138214 -0.0171334 -0.0214891 -0.00657269 0.0199163 0.00708016 0.0220185 -0.000143931 -0.00183425 0.000124617 0.00296548 0.00947243 -0.0118865 0.000244245 0.011791 -0.00826642 -0.0138049 -0.000602431 0.0059011 -0.00112731 -0.025178 -0.0138323 -0.0150532 0.00135575 -0.00221784 0.0104856 -0.00120132 0.00693106 -0.0015282 -0.0145135 -0.00110388 -0.00099313 0.00405277 0.00753121 0.0190555 -0.00986138 0.0132164 -0.0268739 -0.0173263 -0.0243227 0.022173 0.0193321 0.0152953 0.01195 0.0239068 -0.0258195 -0.0155889 -0.00252439 -0.00163589 -7.36206e-05 -0.00539887 0.0168065 -0.00545419 -0.00320958 -0.00538008 -0.0102489 0.000867697 -0.00718837 -0.0140174 0.0176629 -0.00543074
internal_weight=85744 75090 13881 10654 7543 3111 7290 6591 6838 61209 1192 60126 19133 5642 452 13491 5043 1548 2396 12918 2785 12627 6351 701 1083 8007 1180 1984 40993 1584 39409 1247 38162 38048 4299 448 2258 750 4288 799 2023 614 291 573 491 1911 6233 6230 721 146 33749 16936 2544 89 801 16813 8235 2808 14392 2264 1630 715 4620
internal_count=85744 75090 13881 10654 7543 3111 7290 6591 6838 61209 1192 60126 19133 5642 452 13491 5043 1548 2396 12918 2785 12627 6351 701 1083 8007 1180 1984 40993 1584 39409 1247 38162 38048 4299 448 2258 750 4288 799 2023 614 291 573 491 1911 6233 6230 721 146 33749 16936 2544 89 801 16813 8235 2808 14392 2264 1630 715 4620
is_linear=0
shrinkage=0.05


Tree=14
num_leaves=64
num_cat=0
split_feature=40 40 29 34 0 8 75 67 35 21 77 82 36 14 74 0 86 80 37 34 6 40 32 58 82 16 76 49 49 41 52 40 49 43 33 19 21 84 51 62 47 2 42 39 16 17 67 2 89 82 76 2 96 59 52 67 76 35 59 41 25 79 13
split_gain=1290.12 796.646 205.89 183.548 207.185 175.944 172.014 156.386 108.905 101.109 95.3258 151.272 137.139 83.3747 80.7204 123.763 95.7063 124.033 80.4365 102.22 79.1301 77.8945 71.9517 65.5569 62.3464 60.1056 56.6859 102.68 74.405 72.5928 55.1189 52.8885 51.9314 51.7618 50.4812 46.4278 45.4735 43.4081 43.0069 42.3745 41.6416 41.3452 40.0735 39.8635 39.2692 34.5533 34.1592 33.7506 33.5872 32.8366 50.2425 48.9408 32.7014 32.556 32.0326 30.9507 30.8395 57.3803 33.1699 30.6005 29.7931 29.2486 28.3672
threshold=0.37500000000000006 0.60500000000000009 0.38000000000000006 988.60500000000013 1.0000000180025095e-35 2.5000000000000004 443602.84000000003 7.660000000000001 0.9850000000000001 0.025000000000000005 1.0000000180025095e-35 0.59500000000000008 248.10500000000005 0.03500000000000001 471.14000000000004 1.0000000180025095e-35 0.15000000000000005 1.5000000000000002 9.9650000000000016 881.47000000000014 14.500000000000002 0.97500000000000009 6.370000000000001 7.4050000000000011 0.77500000000000013 0.26500000000000007 2.5000000000000004 0.12500000000000003 0.075000000000000025 0.90500000000000014 14.125000000000002 0.90500000000000014 0.075000000000000025 0.025000000000000005 14.555000000000001 0.13500000000000004 0.83500000000000008 0.84500000000000008 9.3450000000000006 5.1150000000000011 0.055000000000000007 7.5000000000000009 0.99500000000000011 0.99500000000000011 0.95500000000000007 0.13500000000000004 4.1450000000000005 12.500000000000002 507.00000000000006 1.1650000000000003 1.5000000000000002 4.5000000000000009 66.675000000000011 -4.2899999999999991 13.995000000000003 6.370000000000001 2.5000000000000004 0.74500000000000011 -5.5549999999999988 0.90500000000000014 0.9850000000000001 2.5000000000000004 19.500000000000004
decision_type=2 2 2 2 2 2 2 2 2 2 2 2 2 2 2 2 2 2 2 2 2 2 2 2 2 2 2 2 2 2 2 2 2 2 2 2 2 2 2 2 2 2 2 2 2 2 2 2 2 2 2 2 2 2 2 2 2 2 2 2 2 2 2
left_child=3 10 6 4 7 20 21 -1 -5 -7 11 12 25 34 18 16 17 30 19 -12 -4 31 62 37 32 -2 27 -26 -28 36 -16 38 -20 -34 -6 41 -29 -8 -3 61 45 -9 -17 -39 -23 49 -42 -33 -10 50 -24 -52 -40 -53 -27 -41 57 -57 -59 -30 -35 -13 -18
right_child=1 2 5 8 13 9 23 35 48 -11 14 39 -14 -15 15 42 22 -19 24 -21 -22 44 40 -25 26 54 28 29 59 -31 -32 47 33 60 -36 -37 -38 43 52 55 46 -43 -44 -45 -46 -47 -48 -49 -50 -51 51 53 -54 -55 -56 56 -58 58 -60 -61 -62 -63 -64
leaf_value=0.015467818635110948 -0.0099418690158437385 0.01393480535538736 -0.024012353630792918 0.02543379047223291 0.007456597166851717 0.023022703294344402 0.010558208599686623 -0.018352304047416796 0.0063048449861163869 0.0033576485527504942 0.011435795073110376 -0.0013507669602945208 -3.5317491122064553e-05 0.00063921771222263881 0.017327488221952028 -0.00019547618596673982 -0.029560261570193147 -0.0049773567266697596 0.00073841790181022144 -0.030264786364498992 0.023115007173208919 0.023001146849776503 0.0016882622514177896 -0.026278236689366803 -0.0019286334457652211 -0.025749287201464473 -0.0022814251179014864 -0.025766328788558824 0.013380814559059621 -0.0031005725416047018 0.0043541042983862134 -0.025037716416764499 0.020355594215742887 0.0054643709034408634 -0.025150891371365947 0.017064925052094743 0.039963824550310778 -0.016890746159363933 0.0092860150834128859 0.012890671841929803 -0.0058731475941824797 -0.0022119800912150825 0.027735067347094147 0.0082959770462496512 0.0092268805568144745 0.031950794117048729 0.019848237459780649 0.0077736929517179245 -0.01847096397074505 0.0043142152712209387 -0.018082578634168827 -0.0069705924384930347 -0.0083119983256208889 0.0065192756773314476 -0.0072351484390791674 -0.0093820670520204374 -0.0015805649813288398 0.0048476863781194684 0.017560528426790144 -8.9795877040975845e-05 -0.04323504362255335 -0.011180498705433056 -0.0030947310768102334
leaf_weight=598 3267 1392 330 379 121 6106 430 1763 221 732 212 3121 2978 347 2563 158 270 1253 6217 479 122 1455 4285 368 5299 1185 4952 1034 1360 673 1203 213 742 1691 6233 121 27 526 532 654 174 512 686 224 803 86 500 124 359 3231 725 1554 524 628 291 615 3915 2746 631 611 32 999 162
leaf_count=598 3267 1392 330 379 121 6106 430 1763 221 732 212 3121 2978 347 2563 158 270 1253 6217 479 122 1455 4285 368 5299 1185 4952 1034 1360 673 1203 213 742 1691 6233 121 27 526 532 654 174 512 686 224 803 86 500 124 359 3231 725 1554 524 628 291 615 3915 2746 631 611 32 999 162
internal_value=5.60163e-06 0.0023158 0.0131304 -0.0162768 -0.0183408 0.0189205 0.00672615 -0.00740582 0.00458989 0.0209176 -0.000136734 -0.00292734 -0.00844497 -0.0232266 0.00125847 0.00382766 0.00287991 0.00864947 -0.000666362 -0.017471 -0.0112921 0.0112014 0.000386802 -0.0078531 -0.00015342 -0.0137252 -0.00222302 -0.0053846 0.000988795 -0.0159458 0.0131833 0.00560604 0.00317338 0.00931464 -0.0245299 -0.0131147 -0.0240936 -0.00210695 0.00816255 0.000432142 0.00116027 -0.0147198 0.0225064 -0.00936831 0.0181027 0.000387586 0.013208 -0.0129647 -0.00903053 0.000127158 -0.00175387 -0.00682768 0.000553668 -0.00308808 -0.0220991 0.00243722 0.0015726 0.00466495 0.00722311 0.00920499 0.00455991 -0.00373424 -0.0196357
internal_weight=85744 75090 13881 10654 9695 7290 6591 2994 959 6838 61209 20402 7721 6701 40807 17478 16634 5019 23329 691 452 5043 11615 1548 22638 4743 13956 7033 6923 1734 3766 2785 8682 2465 6354 2396 1061 1180 2448 12681 11183 2275 844 750 2258 10509 674 337 580 10423 7192 2907 1056 2182 1476 8561 7907 3992 3377 1971 1723 4120 432
internal_count=85744 75090 13881 10654 9695 7290 6591 2994 959 6838 61209 20402 7721 6701 40807 17478 16634 5019 23329 691 452 5043 11615 1548 22638 4743 13956 7033 6923 1734 3766 2785 8682 2465 6354 2396 1061 1180 2448 12681 11183 2275 844 750 2258 10509 674 337 580 10423 7192 2907 1056 2182 1476 8561 7907 3992 3377 1971 1723 4120 432
is_linear=0
shrinkage=0.05


Tree=15
num_leaves=64
num_cat=0
split_feature=40 40 34 73 34 14 74 40 16 89 35 87 74 32 87 75 34 86 16 34 0 68 68 34 51 53 92 12 16 96 94 37 43 13 91 11 94 56 40 37 30 30 25 44 16 53 14 21 40 95 29 81 84 84 49 52 20 50 8 89 95 79 40
split_gain=1185.5 736.115 183.437 258.596 170.03 184.537 127.027 120.413 95.1154 134.243 90.7595 87.223 86.3266 82.7794 83.0668 96.4194 123.939 81.1345 79.1294 145.737 79.0129 56.314 62.0419 103.091 51.419 48.1858 44.8669 50.3343 62.3915 68.213 53.6295 49.4952 44.2178 43.7017 42.8635 42.7618 41.3572 39.8694 38.7901 44.3583 53.43 38.1333 37.484 45.3242 37.3163 36.9895 36.9103 33.4737 31.9983 31.0589 29.9724 56.4425 29.4406 48.438 164.255 38.1604 33.3506 29.2158 28.8473 27.7127 26.593 25.9243 26.8742
threshold=0.37500000000000006 0.60500000000000009 1017.8200000000001 1.0000000180025095e-35 988.60500000000013 0.025000000000000005 15159.675000000001 0.97500000000000009 0.66500000000000015 1823.8200000000004 0.9850000000000001 4432.4550000000008 390.61500000000007 6.370000000000001 2788.6800000000007 428302.55500000005 881.47000000000014 0.15000000000000005 0.99500000000000011 881.47000000000014 1.0000000180025095e-35 3.4500000000000006 6.7300000000000013 844.50500000000011 2.1950000000000007 19.880000000000006 9.9550000000000018 11.500000000000002 0.79500000000000015 270.63000000000005 9.9550000000000018 17.890000000000004 0.77500000000000013 3.5000000000000004 86.810000000000016 1.0000000180025095e-35 76.600000000000009 -0.034999999999999996 0.49500000000000005 11.690000000000001 18.015000000000004 1916.1850000000002 0.97500000000000009 0.38500000000000006 0.95500000000000007 9.8250000000000011 0.21500000000000002 0.83500000000000008 0.34500000000000003 57.990000000000002 0.015000000000000001 1.5000000000000002 1.1650000000000003 0.85500000000000009 0.12500000000000003 4.8550000000000013 0.68500000000000016 -0.33499999999999996 7.5000000000000009 1896.6750000000004 533.31500000000017 1.0000000180025095e-35 0.45500000000000007
decision_type=2 2 2 2 2 2 2 2 2 2 2 2 2 2 2 2 2 2 2 2 2 2 2 2 2 2 2 2 2 2 2 2 2 2 2 2 2 2 2 2 2 2 2 2 2 2 2 2 2 2 2 2 2 2 2 2 2 2 2 2 2 2 2
left_child=4 13 3 7 5 6 20 8 34 32 -6 41 -4 35 15 18 -17 60 21 33 24 -15 23 25 -1 -23 31 28 47 -30 -31 36 -10 -20 37 -2 -24 -3 -19 46 -41 -7 -33 -44 -9 -14 -40 52 -26 -42 51 -29 53 57 -55 -56 -54 -28 -49 -46 -16 62 -37
right_child=1 2 12 -5 10 11 -8 44 9 -11 -12 -13 45 14 17 16 -18 38 19 -21 -22 22 26 -25 48 -27 27 50 29 30 -32 42 -34 -35 -36 61 -38 -39 39 40 49 -43 43 -45 59 -47 -48 58 -50 -51 -52 -53 56 54 55 -57 -58 -59 -60 -61 -62 -63 -64
leaf_value=-0.026913209340880252 -0.0023112834596525013 0.026723327083501711 0.012023155614040526 0.022290997196912927 0.024192955847934544 -0.014076173079017363 0.015444068089137085 0.021997392293163855 -0.00070370674461138027 -0.025046319459846797 -0.0078358236552434363 0.028157554354377778 -0.0023967077240144253 -0.036062606410082201 0.011976756285995298 -0.00059896000453376252 0.026777801704945182 -0.0028867550814052571 0.029072814023700256 -0.02931326155098421 -0.023938147639584288 -0.0017043380768402526 0.0017307834324490415 0.028732406341220512 -0.014017526127941937 0.021578799815142012 -0.010995953812318188 0.01865320078374216 -0.022436084583776716 -0.015793191751325857 0.00040332798878259967 0.0010476757966480274 0.026106469899043912 -0.003460983087038105 0.0025263173393594534 0.014271601834839368 0.020121312628478178 0.0089123093890700802 0.027892892422661505 0.015653939655238692 -0.0083617964130434982 0.00681578823190487 -0.0016428370029228816 -0.02023193074891079 0.01483367000888023 -0.026574270690008152 -0.00630442193970129 -0.007465931399918857 0.00057887032003735284 0.0030238940265364476 -8.0241466742668813e-05 -0.0048215788148224222 -0.0030790640958087787 -0.0029231272900591345 0.017389278414589666 -0.0085887153564967334 -0.011962540693476315 -0.0024745236242663224 0.032163706880349384 -0.0033848911973355165 -0.008192473526699523 -0.028488762920106849 -0.029866820618005125
leaf_weight=483 443 448 372 5621 366 553 244 1453 677 618 559 238 247 113 2954 982 714 3202 116 700 6287 1433 631 454 952 263 1130 718 790 792 1441 13258 199 937 1634 83 593 1052 327 650 833 361 1118 464 708 440 104 71 620 2132 1863 398 3680 4467 1607 155 1482 9155 130 296 173 463 59
